<?xml version="1.0"?>
<opencv_storage>
<cascade>
  <stageType>BOOST</stageType>
  <featureType>HAAR</featureType>
  <height>16</height>
  <width>16</width>
  <stageParams>
    <boostType>GAB</boostType>
    <minHitRate>9.9500000476837158e-01</minHitRate>
    <maxFalseAlarm>5.0000000000000000e-01</maxFalseAlarm>
    <weightTrimRate>9.4999999999999996e-01</weightTrimRate>
    <maxDepth>1</maxDepth>
    <maxWeakCount>100</maxWeakCount></stageParams>
  <featureParams>
    <maxCatCount>0</maxCatCount>
    <featSize>1</featSize>
    <mode>ALL</mode></featureParams>
  <stageNum>20</stageNum>
  <stages>
    <!-- stage 0 -->
    <_>
      <maxWeakCount>11</maxWeakCount>
      <stageThreshold>-1.6874245405197144e+00</stageThreshold>
      <weakClassifiers>
        <_>
          <internalNodes>
            0 -1 159 -1.8481156229972839e-01</internalNodes>
          <leafValues>
            5.9412550926208496e-01 -7.6155161857604980e-01</leafValues></_>
        <_>
          <internalNodes>
            0 -1 24 6.7418381571769714e-02</internalNodes>
          <leafValues>
            -6.1326062679290771e-01 5.3948009014129639e-01</leafValues></_>
        <_>
          <internalNodes>
            0 -1 143 3.8903497159481049e-02</internalNodes>
          <leafValues>
            -3.6007982492446899e-01 5.5703753232955933e-01</leafValues></_>
        <_>
          <internalNodes>
            0 -1 188 1.1538473516702652e-01</internalNodes>
          <leafValues>
            -3.3126252889633179e-01 3.2679912447929382e-01</leafValues></_>
        <_>
          <internalNodes>
            0 -1 380 -2.4692837148904800e-02</internalNodes>
          <leafValues>
            5.5099618434906006e-01 -1.6436007618904114e-01</leafValues></_>
        <_>
          <internalNodes>
            0 -1 157 4.0190696716308594e-02</internalNodes>
          <leafValues>
            -2.5987100601196289e-01 3.8830709457397461e-01</leafValues></_>
        <_>
          <internalNodes>
            0 -1 474 -3.2270528376102448e-02</internalNodes>
          <leafValues>
            6.1647534370422363e-01 -1.4958681166172028e-01</leafValues></_>
        <_>
          <internalNodes>
            0 -1 236 -1.0842857882380486e-03</internalNodes>
          <leafValues>
            -4.4481462240219116e-01 1.7717480659484863e-01</leafValues></_>
        <_>
          <internalNodes>
            0 -1 468 2.2292351350188255e-03</internalNodes>
          <leafValues>
            1.4801023900508881e-01 -5.0229036808013916e-01</leafValues></_>
        <_>
          <internalNodes>
            0 -1 334 -1.9469857215881348e-02</internalNodes>
          <leafValues>
            4.0552881360054016e-01 -1.9414429366588593e-01</leafValues></_>
        <_>
          <internalNodes>
            0 -1 1 -1.1861443053930998e-03</internalNodes>
          <leafValues>
            -4.6677944064140320e-01 1.7332907021045685e-01</leafValues></_></weakClassifiers></_>
    <!-- stage 1 -->
    <_>
      <maxWeakCount>17</maxWeakCount>
      <stageThreshold>-1.7749708890914917e+00</stageThreshold>
      <weakClassifiers>
        <_>
          <internalNodes>
            0 -1 26 8.2485139369964600e-02</internalNodes>
          <leafValues>
            -6.7520338296890259e-01 4.7874385118484497e-01</leafValues></_>
        <_>
          <internalNodes>
            0 -1 117 -3.1558591127395630e-01</internalNodes>
          <leafValues>
            5.1377046108245850e-01 -5.7418453693389893e-01</leafValues></_>
        <_>
          <internalNodes>
            0 -1 101 5.3886853158473969e-02</internalNodes>
          <leafValues>
            -3.2005167007446289e-01 4.4799020886421204e-01</leafValues></_>
        <_>
          <internalNodes>
            0 -1 180 -3.5334349377080798e-05</internalNodes>
          <leafValues>
            2.8821268677711487e-01 -3.2955661416053772e-01</leafValues></_>
        <_>
          <internalNodes>
            0 -1 160 4.1688032448291779e-02</internalNodes>
          <leafValues>
            -2.4719761312007904e-01 3.7345293164253235e-01</leafValues></_>
        <_>
          <internalNodes>
            0 -1 338 -5.3137749433517456e-02</internalNodes>
          <leafValues>
            5.2392768859863281e-01 -2.1640907227993011e-01</leafValues></_>
        <_>
          <internalNodes>
            0 -1 585 1.8567179795354605e-03</internalNodes>
          <leafValues>
            1.5977443754673004e-01 -6.3729596138000488e-01</leafValues></_>
        <_>
          <internalNodes>
            0 -1 585 -1.2636610772460699e-03</internalNodes>
          <leafValues>
            -5.2680450677871704e-01 1.9181458652019501e-01</leafValues></_>
        <_>
          <internalNodes>
            0 -1 244 4.1314966976642609e-02</internalNodes>
          <leafValues>
            -2.9446288943290710e-01 2.9431986808776855e-01</leafValues></_>
        <_>
          <internalNodes>
            0 -1 202 2.8727117925882339e-02</internalNodes>
          <leafValues>
            -1.4654646813869476e-01 5.1517993211746216e-01</leafValues></_>
        <_>
          <internalNodes>
            0 -1 22 1.2962704058736563e-03</internalNodes>
          <leafValues>
            1.4388754963874817e-01 -5.4746079444885254e-01</leafValues></_>
        <_>
          <internalNodes>
            0 -1 2 -1.4768517576158047e-03</internalNodes>
          <leafValues>
            -4.7306087613105774e-01 1.7562234401702881e-01</leafValues></_>
        <_>
          <internalNodes>
            0 -1 452 2.5049757212400436e-02</internalNodes>
          <leafValues>
            -1.6584074497222900e-01 4.6125534176826477e-01</leafValues></_>
        <_>
          <internalNodes>
            0 -1 415 2.3073229938745499e-02</internalNodes>
          <leafValues>
            -2.1054339408874512e-01 4.0390536189079285e-01</leafValues></_>
        <_>
          <internalNodes>
            0 -1 561 -1.6164697008207440e-03</internalNodes>
          <leafValues>
            -6.7834424972534180e-01 1.1948984116315842e-01</leafValues></_>
        <_>
          <internalNodes>
            0 -1 520 -7.1691818535327911e-02</internalNodes>
          <leafValues>
            5.7080155611038208e-01 -1.3859023153781891e-01</leafValues></_>
        <_>
          <internalNodes>
            0 -1 356 2.1720336750149727e-02</internalNodes>
          <leafValues>
            -2.9230973124504089e-01 2.5481325387954712e-01</leafValues></_></weakClassifiers></_>
    <!-- stage 2 -->
    <_>
      <maxWeakCount>14</maxWeakCount>
      <stageThreshold>-1.4053483009338379e+00</stageThreshold>
      <weakClassifiers>
        <_>
          <internalNodes>
            0 -1 24 8.0206692218780518e-02</internalNodes>
          <leafValues>
            -6.0718935728073120e-01 5.6020188331604004e-01</leafValues></_>
        <_>
          <internalNodes>
            0 -1 58 -8.1909900472965091e-05</internalNodes>
          <leafValues>
            3.1955364346504211e-01 -5.2902960777282715e-01</leafValues></_>
        <_>
          <internalNodes>
            0 -1 17 3.4899838268756866e-02</internalNodes>
          <leafValues>
            -5.0134253501892090e-01 2.7181300520896912e-01</leafValues></_>
        <_>
          <internalNodes>
            0 -1 21 1.4408408105373383e-01</internalNodes>
          <leafValues>
            -3.2711243629455566e-01 3.7025317549705505e-01</leafValues></_>
        <_>
          <internalNodes>
            0 -1 109 4.3605476617813110e-02</internalNodes>
          <leafValues>
            -2.0082788169384003e-01 5.6026452779769897e-01</leafValues></_>
        <_>
          <internalNodes>
            0 -1 248 3.7584923207759857e-02</internalNodes>
          <leafValues>
            -3.4467452764511108e-01 3.8562643527984619e-01</leafValues></_>
        <_>
          <internalNodes>
            0 -1 266 3.1119273975491524e-02</internalNodes>
          <leafValues>
            -3.0740645527839661e-01 3.7658116221427917e-01</leafValues></_>
        <_>
          <internalNodes>
            0 -1 158 -4.2770385742187500e-02</internalNodes>
          <leafValues>
            6.6143471002578735e-01 -1.7220960557460785e-01</leafValues></_>
        <_>
          <internalNodes>
            0 -1 291 -2.2957101464271545e-02</internalNodes>
          <leafValues>
            5.6652754545211792e-01 -1.3109998404979706e-01</leafValues></_>
        <_>
          <internalNodes>
            0 -1 582 -1.3424080098047853e-03</internalNodes>
          <leafValues>
            -7.0498478412628174e-01 1.4030243456363678e-01</leafValues></_>
        <_>
          <internalNodes>
            0 -1 475 -1.3774694874882698e-02</internalNodes>
          <leafValues>
            4.5778971910476685e-01 -1.8682660162448883e-01</leafValues></_>
        <_>
          <internalNodes>
            0 -1 262 -3.5794075578451157e-02</internalNodes>
          <leafValues>
            5.6396949291229248e-01 -1.6717743873596191e-01</leafValues></_>
        <_>
          <internalNodes>
            0 -1 93 -1.4421667438000441e-03</internalNodes>
          <leafValues>
            -6.1247414350509644e-01 1.4767219126224518e-01</leafValues></_>
        <_>
          <internalNodes>
            0 -1 274 2.7319058775901794e-02</internalNodes>
          <leafValues>
            -2.3291654884815216e-01 3.2443037629127502e-01</leafValues></_></weakClassifiers></_>
    <!-- stage 3 -->
    <_>
      <maxWeakCount>20</maxWeakCount>
      <stageThreshold>-1.5819779634475708e+00</stageThreshold>
      <weakClassifiers>
        <_>
          <internalNodes>
            0 -1 116 -3.4023803472518921e-01</internalNodes>
          <leafValues>
            4.5220765471458435e-01 -4.8066014051437378e-01</leafValues></_>
        <_>
          <internalNodes>
            0 -1 24 8.7417155504226685e-02</internalNodes>
          <leafValues>
            -4.8680877685546875e-01 4.3183603882789612e-01</leafValues></_>
        <_>
          <internalNodes>
            0 -1 138 -3.5642700822791085e-05</internalNodes>
          <leafValues>
            3.2127347588539124e-01 -3.9767527580261230e-01</leafValues></_>
        <_>
          <internalNodes>
            0 -1 138 -1.3931258581578732e-03</internalNodes>
          <leafValues>
            -6.1728346347808838e-01 2.2423970699310303e-01</leafValues></_>
        <_>
          <internalNodes>
            0 -1 94 1.8258688505738974e-03</internalNodes>
          <leafValues>
            1.0720176249742508e-01 -6.1264967918395996e-01</leafValues></_>
        <_>
          <internalNodes>
            0 -1 485 3.9713375270366669e-02</internalNodes>
          <leafValues>
            -1.8520990014076233e-01 5.5262696743011475e-01</leafValues></_>
        <_>
          <internalNodes>
            0 -1 351 3.5498518496751785e-02</internalNodes>
          <leafValues>
            -2.3127199709415436e-01 4.5339381694793701e-01</leafValues></_>
        <_>
          <internalNodes>
            0 -1 344 1.3000553846359253e-01</internalNodes>
          <leafValues>
            -1.3760708272457123e-01 5.8058834075927734e-01</leafValues></_>
        <_>
          <internalNodes>
            0 -1 94 -1.9668629392981529e-03</internalNodes>
          <leafValues>
            -5.4609578847885132e-01 1.5820485353469849e-01</leafValues></_>
        <_>
          <internalNodes>
            0 -1 217 2.3052252829074860e-02</internalNodes>
          <leafValues>
            -2.7116578817367554e-01 2.9281118512153625e-01</leafValues></_>
        <_>
          <internalNodes>
            0 -1 368 -3.6539979191729799e-05</internalNodes>
          <leafValues>
            2.3604473471641541e-01 -4.2628642916679382e-01</leafValues></_>
        <_>
          <internalNodes>
            0 -1 392 6.5418854355812073e-02</internalNodes>
          <leafValues>
            -1.5264788269996643e-01 5.1903927326202393e-01</leafValues></_>
        <_>
          <internalNodes>
            0 -1 563 2.0010406151413918e-03</internalNodes>
          <leafValues>
            1.4605647325515747e-01 -4.6784311532974243e-01</leafValues></_>
        <_>
          <internalNodes>
            0 -1 393 4.5722432434558868e-02</internalNodes>
          <leafValues>
            -1.7164972424507141e-01 4.3276873230934143e-01</leafValues></_>
        <_>
          <internalNodes>
            0 -1 249 4.4523783028125763e-02</internalNodes>
          <leafValues>
            -1.7971013486385345e-01 4.5982527732849121e-01</leafValues></_>
        <_>
          <internalNodes>
            0 -1 115 4.2786750942468643e-02</internalNodes>
          <leafValues>
            -1.5027090907096863e-01 4.3154972791671753e-01</leafValues></_>
        <_>
          <internalNodes>
            0 -1 378 -1.9655155483633280e-03</internalNodes>
          <leafValues>
            -6.5493267774581909e-01 1.0532744228839874e-01</leafValues></_>
        <_>
          <internalNodes>
            0 -1 516 -3.0721899121999741e-02</internalNodes>
          <leafValues>
            5.0703746080398560e-01 -1.3048322498798370e-01</leafValues></_>
        <_>
          <internalNodes>
            0 -1 555 -8.4370563854463398e-05</internalNodes>
          <leafValues>
            2.1481938660144806e-01 -3.3131429553031921e-01</leafValues></_>
        <_>
          <internalNodes>
            0 -1 75 6.9360081106424332e-03</internalNodes>
          <leafValues>
            -1.6289110481739044e-01 3.9586907625198364e-01</leafValues></_></weakClassifiers></_>
    <!-- stage 4 -->
    <_>
      <maxWeakCount>25</maxWeakCount>
      <stageThreshold>-1.6021265983581543e+00</stageThreshold>
      <weakClassifiers>
        <_>
          <internalNodes>
            0 -1 100 3.0432494357228279e-02</internalNodes>
          <leafValues>
            -5.4316228628158569e-01 3.9554980397224426e-01</leafValues></_>
        <_>
          <internalNodes>
            0 -1 535 7.0217211032286286e-05</internalNodes>
          <leafValues>
            -4.6495211124420166e-01 3.1951096653938293e-01</leafValues></_>
        <_>
          <internalNodes>
            0 -1 89 -7.0563299232162535e-05</internalNodes>
          <leafValues>
            2.9766476154327393e-01 -4.0331539511680603e-01</leafValues></_>
        <_>
          <internalNodes>
            0 -1 584 -1.2108860537409782e-03</internalNodes>
          <leafValues>
            -5.6299924850463867e-01 2.3887299001216888e-01</leafValues></_>
        <_>
          <internalNodes>
            0 -1 289 1.5459117479622364e-02</internalNodes>
          <leafValues>
            -2.0084953308105469e-01 5.9303373098373413e-01</leafValues></_>
        <_>
          <internalNodes>
            0 -1 184 5.0198109820485115e-03</internalNodes>
          <leafValues>
            1.6677467525005341e-01 -5.1301097869873047e-01</leafValues></_>
        <_>
          <internalNodes>
            0 -1 535 1.5599543694406748e-03</internalNodes>
          <leafValues>
            1.1718503385782242e-01 -6.1683732271194458e-01</leafValues></_>
        <_>
          <internalNodes>
            0 -1 575 1.0775873437523842e-02</internalNodes>
          <leafValues>
            -1.8121761083602905e-01 4.7367185354232788e-01</leafValues></_>
        <_>
          <internalNodes>
            0 -1 362 4.6430595219135284e-02</internalNodes>
          <leafValues>
            -2.3480589687824249e-01 3.4289777278900146e-01</leafValues></_>
        <_>
          <internalNodes>
            0 -1 444 4.9556411802768707e-02</internalNodes>
          <leafValues>
            -2.3892307281494141e-01 3.5197335481643677e-01</leafValues></_>
        <_>
          <internalNodes>
            0 -1 89 -1.3528898125514388e-03</internalNodes>
          <leafValues>
            -6.0007464885711670e-01 1.2284939736127853e-01</leafValues></_>
        <_>
          <internalNodes>
            0 -1 382 1.1277385056018829e-01</internalNodes>
          <leafValues>
            -1.6041490435600281e-01 5.3618758916854858e-01</leafValues></_>
        <_>
          <internalNodes>
            0 -1 484 3.7666685879230499e-02</internalNodes>
          <leafValues>
            -1.3755849003791809e-01 5.1097339391708374e-01</leafValues></_>
        <_>
          <internalNodes>
            0 -1 79 -1.3693581521511078e-01</internalNodes>
          <leafValues>
            2.1327669918537140e-01 -3.5017043352127075e-01</leafValues></_>
        <_>
          <internalNodes>
            0 -1 515 -1.5092078596353531e-02</internalNodes>
          <leafValues>
            4.0014529228210449e-01 -1.7705824971199036e-01</leafValues></_>
        <_>
          <internalNodes>
            0 -1 14 4.0849961340427399e-02</internalNodes>
          <leafValues>
            -3.0138403177261353e-01 2.1271549165248871e-01</leafValues></_>
        <_>
          <internalNodes>
            0 -1 436 -1.3724567368626595e-02</internalNodes>
          <leafValues>
            4.1233980655670166e-01 -1.6091772913932800e-01</leafValues></_>
        <_>
          <internalNodes>
            0 -1 297 -2.7926187962293625e-02</internalNodes>
          <leafValues>
            5.2984702587127686e-01 -1.2149208784103394e-01</leafValues></_>
        <_>
          <internalNodes>
            0 -1 201 -3.1703394651412964e-01</internalNodes>
          <leafValues>
            7.8517013788223267e-01 -7.8604035079479218e-02</leafValues></_>
        <_>
          <internalNodes>
            0 -1 537 1.5947251813486218e-03</internalNodes>
          <leafValues>
            1.5611438453197479e-01 -4.4195729494094849e-01</leafValues></_>
        <_>
          <internalNodes>
            0 -1 7 -2.3364282678812742e-03</internalNodes>
          <leafValues>
            -4.5110133290290833e-01 1.0546267777681351e-01</leafValues></_>
        <_>
          <internalNodes>
            0 -1 6 2.5753807276487350e-03</internalNodes>
          <leafValues>
            1.3514558970928192e-01 -3.9809021353721619e-01</leafValues></_>
        <_>
          <internalNodes>
            0 -1 424 -5.2921252790838480e-04</internalNodes>
          <leafValues>
            2.1746049821376801e-01 -2.4948056042194366e-01</leafValues></_>
        <_>
          <internalNodes>
            0 -1 598 3.5334349377080798e-05</internalNodes>
          <leafValues>
            -2.1168529987335205e-01 2.2753246128559113e-01</leafValues></_>
        <_>
          <internalNodes>
            0 -1 598 1.8768537556752563e-03</internalNodes>
          <leafValues>
            8.9667215943336487e-02 -6.8869763612747192e-01</leafValues></_></weakClassifiers></_>
    <!-- stage 5 -->
    <_>
      <maxWeakCount>25</maxWeakCount>
      <stageThreshold>-1.5150183439254761e+00</stageThreshold>
      <weakClassifiers>
        <_>
          <internalNodes>
            0 -1 99 5.4763071238994598e-02</internalNodes>
          <leafValues>
            -3.8855922222137451e-01 4.3226829171180725e-01</leafValues></_>
        <_>
          <internalNodes>
            0 -1 52 -3.5866054531652480e-05</internalNodes>
          <leafValues>
            3.0759406089782715e-01 -4.4350522756576538e-01</leafValues></_>
        <_>
          <internalNodes>
            0 -1 13 1.0605962574481964e-01</internalNodes>
          <leafValues>
            -5.3339558839797974e-01 2.2166156768798828e-01</leafValues></_>
        <_>
          <internalNodes>
            0 -1 52 -1.5670477878302336e-03</internalNodes>
          <leafValues>
            -6.8513548374176025e-01 1.6447333991527557e-01</leafValues></_>
        <_>
          <internalNodes>
            0 -1 59 -3.3105954062193632e-03</internalNodes>
          <leafValues>
            2.6456969976425171e-01 -4.0031793713569641e-01</leafValues></_>
        <_>
          <internalNodes>
            0 -1 594 -1.0092128068208694e-02</internalNodes>
          <leafValues>
            4.2234835028648376e-01 -2.4301427602767944e-01</leafValues></_>
        <_>
          <internalNodes>
            0 -1 400 5.0045594573020935e-02</internalNodes>
          <leafValues>
            -2.3889735341072083e-01 2.8785270452499390e-01</leafValues></_>
        <_>
          <internalNodes>
            0 -1 307 -3.1043475493788719e-02</internalNodes>
          <leafValues>
            4.4466200470924377e-01 -1.5770062804222107e-01</leafValues></_>
        <_>
          <internalNodes>
            0 -1 561 2.0275148563086987e-03</internalNodes>
          <leafValues>
            1.3177582621574402e-01 -6.8570071458816528e-01</leafValues></_>
        <_>
          <internalNodes>
            0 -1 561 3.5295954148750752e-05</internalNodes>
          <leafValues>
            -3.3540362119674683e-01 2.2866052389144897e-01</leafValues></_>
        <_>
          <internalNodes>
            0 -1 365 3.0042154714465141e-02</internalNodes>
          <leafValues>
            -2.6383292675018311e-01 2.8604939579963684e-01</leafValues></_>
        <_>
          <internalNodes>
            0 -1 301 4.4717833399772644e-02</internalNodes>
          <leafValues>
            -2.5141575932502747e-01 2.5846573710441589e-01</leafValues></_>
        <_>
          <internalNodes>
            0 -1 440 -1.4683430083096027e-02</internalNodes>
          <leafValues>
            4.5486173033714294e-01 -1.2422386556863785e-01</leafValues></_>
        <_>
          <internalNodes>
            0 -1 377 1.8151050899177790e-03</internalNodes>
          <leafValues>
            9.5179319381713867e-02 -6.7076826095581055e-01</leafValues></_>
        <_>
          <internalNodes>
            0 -1 442 -6.3777551054954529e-02</internalNodes>
          <leafValues>
            5.0867807865142822e-01 -1.3590191304683685e-01</leafValues></_>
        <_>
          <internalNodes>
            0 -1 472 -2.2224200889468193e-02</internalNodes>
          <leafValues>
            4.3242308497428894e-01 -1.4394040405750275e-01</leafValues></_>
        <_>
          <internalNodes>
            0 -1 539 2.1521490998566151e-03</internalNodes>
          <leafValues>
            1.2683574855327606e-01 -5.3411847352981567e-01</leafValues></_>
        <_>
          <internalNodes>
            0 -1 608 4.3695773929357529e-03</internalNodes>
          <leafValues>
            1.1493550240993500e-01 -4.4410768151283264e-01</leafValues></_>
        <_>
          <internalNodes>
            0 -1 40 2.9446739703416824e-02</internalNodes>
          <leafValues>
            -1.3521775603294373e-01 4.2694187164306641e-01</leafValues></_>
        <_>
          <internalNodes>
            0 -1 212 2.6962428819388151e-04</internalNodes>
          <leafValues>
            -3.4492918848991394e-01 2.0940217375755310e-01</leafValues></_>
        <_>
          <internalNodes>
            0 -1 292 -3.9655608125030994e-03</internalNodes>
          <leafValues>
            3.1533485651016235e-01 -1.8137371540069580e-01</leafValues></_>
        <_>
          <internalNodes>
            0 -1 193 9.6856001764535904e-03</internalNodes>
          <leafValues>
            -2.3982520401477814e-01 2.5371894240379333e-01</leafValues></_>
        <_>
          <internalNodes>
            0 -1 140 -2.6513966731727123e-03</internalNodes>
          <leafValues>
            -5.3790515661239624e-01 1.0345979779958725e-01</leafValues></_>
        <_>
          <internalNodes>
            0 -1 140 1.5784585848450661e-03</internalNodes>
          <leafValues>
            1.4397937059402466e-01 -4.4063118100166321e-01</leafValues></_>
        <_>
          <internalNodes>
            0 -1 67 1.4944266527891159e-02</internalNodes>
          <leafValues>
            -1.4716602861881256e-01 4.2009454965591431e-01</leafValues></_></weakClassifiers></_>
    <!-- stage 6 -->
    <_>
      <maxWeakCount>32</maxWeakCount>
      <stageThreshold>-1.6107245683670044e+00</stageThreshold>
      <weakClassifiers>
        <_>
          <internalNodes>
            0 -1 469 -9.9114049226045609e-03</internalNodes>
          <leafValues>
            3.9232736825942993e-01 -3.7506112456321716e-01</leafValues></_>
        <_>
          <internalNodes>
            0 -1 80 -3.8324180245399475e-01</internalNodes>
          <leafValues>
            3.4226661920547485e-01 -4.1561526060104370e-01</leafValues></_>
        <_>
          <internalNodes>
            0 -1 93 -7.2851704317145050e-05</internalNodes>
          <leafValues>
            2.3555484414100647e-01 -3.6185249686241150e-01</leafValues></_>
        <_>
          <internalNodes>
            0 -1 468 1.2668711133301258e-03</internalNodes>
          <leafValues>
            2.0008361339569092e-01 -5.4350912570953369e-01</leafValues></_>
        <_>
          <internalNodes>
            0 -1 234 2.8591435402631760e-02</internalNodes>
          <leafValues>
            -2.0177270472049713e-01 5.0336021184921265e-01</leafValues></_>
        <_>
          <internalNodes>
            0 -1 380 4.1063979268074036e-02</internalNodes>
          <leafValues>
            -2.1100245416164398e-01 4.8227041959762573e-01</leafValues></_>
        <_>
          <internalNodes>
            0 -1 539 -1.7074459465220571e-03</internalNodes>
          <leafValues>
            -4.1091370582580566e-01 1.7561209201812744e-01</leafValues></_>
        <_>
          <internalNodes>
            0 -1 549 5.8593619614839554e-03</internalNodes>
          <leafValues>
            -1.8632134795188904e-01 3.8139423727989197e-01</leafValues></_>
        <_>
          <internalNodes>
            0 -1 492 8.2706417888402939e-03</internalNodes>
          <leafValues>
            -1.8676838278770447e-01 3.8511604070663452e-01</leafValues></_>
        <_>
          <internalNodes>
            0 -1 389 -2.1302273496985435e-02</internalNodes>
          <leafValues>
            5.0779128074645996e-01 -1.5396647155284882e-01</leafValues></_>
        <_>
          <internalNodes>
            0 -1 93 -1.1503070127218962e-03</internalNodes>
          <leafValues>
            -5.4140949249267578e-01 1.6200222074985504e-01</leafValues></_>
        <_>
          <internalNodes>
            0 -1 330 3.7537144962698221e-03</internalNodes>
          <leafValues>
            -2.8813913464546204e-01 1.8917660415172577e-01</leafValues></_>
        <_>
          <internalNodes>
            0 -1 126 3.9024353027343750e-02</internalNodes>
          <leafValues>
            -1.9984103739261627e-01 3.1291612982749939e-01</leafValues></_>
        <_>
          <internalNodes>
            0 -1 402 -6.0108520090579987e-02</internalNodes>
          <leafValues>
            4.4806411862373352e-01 -1.6355109214782715e-01</leafValues></_>
        <_>
          <internalNodes>
            0 -1 591 -2.1887184120714664e-03</internalNodes>
          <leafValues>
            -5.3855335712432861e-01 1.3228771090507507e-01</leafValues></_>
        <_>
          <internalNodes>
            0 -1 206 2.4504035711288452e-02</internalNodes>
          <leafValues>
            -2.0377944409847260e-01 3.0095601081848145e-01</leafValues></_>
        <_>
          <internalNodes>
            0 -1 3 -9.4198866281658411e-04</internalNodes>
          <leafValues>
            -4.7385165095329285e-01 1.1496447026729584e-01</leafValues></_>
        <_>
          <internalNodes>
            0 -1 366 9.2855491675436497e-04</internalNodes>
          <leafValues>
            -2.9470065236091614e-01 1.7024283111095428e-01</leafValues></_>
        <_>
          <internalNodes>
            0 -1 528 -2.5218192487955093e-02</internalNodes>
          <leafValues>
            3.9037457108497620e-01 -1.3503488898277283e-01</leafValues></_>
        <_>
          <internalNodes>
            0 -1 108 5.0421781837940216e-02</internalNodes>
          <leafValues>
            -1.9916163384914398e-01 2.9321148991584778e-01</leafValues></_>
        <_>
          <internalNodes>
            0 -1 598 7.0202797360252589e-05</internalNodes>
          <leafValues>
            -2.3380203545093536e-01 2.2545057535171509e-01</leafValues></_>
        <_>
          <internalNodes>
            0 -1 599 2.4883600417524576e-03</internalNodes>
          <leafValues>
            7.5636833906173706e-02 -6.3092601299285889e-01</leafValues></_>
        <_>
          <internalNodes>
            0 -1 280 8.2121156156063080e-03</internalNodes>
          <leafValues>
            -1.8951827287673950e-01 2.5941911339759827e-01</leafValues></_>
        <_>
          <internalNodes>
            0 -1 233 6.5034516155719757e-03</internalNodes>
          <leafValues>
            -1.5598900616168976e-01 2.9645738005638123e-01</leafValues></_>
        <_>
          <internalNodes>
            0 -1 287 -1.4432380907237530e-02</internalNodes>
          <leafValues>
            3.6075434088706970e-01 -1.5738534927368164e-01</leafValues></_>
        <_>
          <internalNodes>
            0 -1 580 2.5431015528738499e-03</internalNodes>
          <leafValues>
            1.0918509960174561e-01 -4.5479452610015869e-01</leafValues></_>
        <_>
          <internalNodes>
            0 -1 417 1.5683673322200775e-02</internalNodes>
          <leafValues>
            -2.1293807029724121e-01 2.3322324454784393e-01</leafValues></_>
        <_>
          <internalNodes>
            0 -1 513 -2.0836863666772842e-02</internalNodes>
          <leafValues>
            4.3252384662628174e-01 -1.1432787030935287e-01</leafValues></_>
        <_>
          <internalNodes>
            0 -1 103 4.0842413902282715e-02</internalNodes>
          <leafValues>
            -1.8974551558494568e-01 2.4305905401706696e-01</leafValues></_>
        <_>
          <internalNodes>
            0 -1 500 -8.0188154242932796e-05</internalNodes>
          <leafValues>
            1.5343296527862549e-01 -3.1293368339538574e-01</leafValues></_>
        <_>
          <internalNodes>
            0 -1 435 -1.4685347676277161e-02</internalNodes>
          <leafValues>
            3.6229017376899719e-01 -1.4214938879013062e-01</leafValues></_>
        <_>
          <internalNodes>
            0 -1 341 1.3888389803469181e-02</internalNodes>
          <leafValues>
            -1.5240819752216339e-01 3.2982680201530457e-01</leafValues></_></weakClassifiers></_>
    <!-- stage 7 -->
    <_>
      <maxWeakCount>33</maxWeakCount>
      <stageThreshold>-1.5393408536911011e+00</stageThreshold>
      <weakClassifiers>
        <_>
          <internalNodes>
            0 -1 579 7.1240967372432351e-05</internalNodes>
          <leafValues>
            -4.6041601896286011e-01 3.1031596660614014e-01</leafValues></_>
        <_>
          <internalNodes>
            0 -1 541 -2.8487447649240494e-02</internalNodes>
          <leafValues>
            4.5240381360054016e-01 -2.4445571005344391e-01</leafValues></_>
        <_>
          <internalNodes>
            0 -1 38 -8.7702006101608276e-02</internalNodes>
          <leafValues>
            2.1642136573791504e-01 -4.7449597716331482e-01</leafValues></_>
        <_>
          <internalNodes>
            0 -1 16 2.6527106761932373e-02</internalNodes>
          <leafValues>
            -4.6181258559226990e-01 2.2394071519374847e-01</leafValues></_>
        <_>
          <internalNodes>
            0 -1 180 -6.9307476223912090e-05</internalNodes>
          <leafValues>
            1.8605452775955200e-01 -3.7093809247016907e-01</leafValues></_>
        <_>
          <internalNodes>
            0 -1 589 -1.2889758218079805e-03</internalNodes>
          <leafValues>
            -5.1183927059173584e-01 1.4653576910495758e-01</leafValues></_>
        <_>
          <internalNodes>
            0 -1 411 5.2867870777845383e-02</internalNodes>
          <leafValues>
            -2.4747686088085175e-01 2.5739493966102600e-01</leafValues></_>
        <_>
          <internalNodes>
            0 -1 1 1.0882923379540443e-03</internalNodes>
          <leafValues>
            1.9717726111412048e-01 -4.0359473228454590e-01</leafValues></_>
        <_>
          <internalNodes>
            0 -1 547 1.1730534024536610e-02</internalNodes>
          <leafValues>
            -2.1270163357257843e-01 3.6011981964111328e-01</leafValues></_>
        <_>
          <internalNodes>
            0 -1 579 1.4752525603398681e-03</internalNodes>
          <leafValues>
            1.1598110198974609e-01 -6.0926109552383423e-01</leafValues></_>
        <_>
          <internalNodes>
            0 -1 186 -3.4082373604178429e-03</internalNodes>
          <leafValues>
            1.4932559430599213e-01 -3.9015877246856689e-01</leafValues></_>
        <_>
          <internalNodes>
            0 -1 171 2.9145058244466782e-02</internalNodes>
          <leafValues>
            -2.0400823652744293e-01 2.8305661678314209e-01</leafValues></_>
        <_>
          <internalNodes>
            0 -1 172 -2.8907939791679382e-02</internalNodes>
          <leafValues>
            4.5441052317619324e-01 -1.5934635698795319e-01</leafValues></_>
        <_>
          <internalNodes>
            0 -1 157 3.9975933730602264e-02</internalNodes>
          <leafValues>
            -2.3687794804573059e-01 2.6924836635589600e-01</leafValues></_>
        <_>
          <internalNodes>
            0 -1 343 -2.8733434155583382e-02</internalNodes>
          <leafValues>
            5.1142060756683350e-01 -1.3174080848693848e-01</leafValues></_>
        <_>
          <internalNodes>
            0 -1 0 -9.0977147920057178e-04</internalNodes>
          <leafValues>
            -6.1145508289337158e-01 1.1367166042327881e-01</leafValues></_>
        <_>
          <internalNodes>
            0 -1 542 -1.5750862658023834e-02</internalNodes>
          <leafValues>
            4.0067026019096375e-01 -1.4627172052860260e-01</leafValues></_>
        <_>
          <internalNodes>
            0 -1 29 2.2215977311134338e-01</internalNodes>
          <leafValues>
            9.4535984098911285e-02 -6.9849723577499390e-01</leafValues></_>
        <_>
          <internalNodes>
            0 -1 584 1.5360596589744091e-03</internalNodes>
          <leafValues>
            1.0947567224502563e-01 -4.2434206604957581e-01</leafValues></_>
        <_>
          <internalNodes>
            0 -1 25 3.0106147751212120e-02</internalNodes>
          <leafValues>
            1.1832038313150406e-01 -4.2280024290084839e-01</leafValues></_>
        <_>
          <internalNodes>
            0 -1 240 -2.6845859363675117e-02</internalNodes>
          <leafValues>
            4.6464714407920837e-01 -1.1061158776283264e-01</leafValues></_>
        <_>
          <internalNodes>
            0 -1 31 1.1555969715118408e-01</internalNodes>
          <leafValues>
            -1.5792948007583618e-01 3.3500206470489502e-01</leafValues></_>
        <_>
          <internalNodes>
            0 -1 253 4.0496837347745895e-02</internalNodes>
          <leafValues>
            -2.1172235906124115e-01 2.2518855333328247e-01</leafValues></_>
        <_>
          <internalNodes>
            0 -1 169 -4.9332782626152039e-02</internalNodes>
          <leafValues>
            3.8097345829010010e-01 -1.3115327060222626e-01</leafValues></_>
        <_>
          <internalNodes>
            0 -1 139 1.8411473138257861e-03</internalNodes>
          <leafValues>
            1.0231604427099228e-01 -5.4458415508270264e-01</leafValues></_>
        <_>
          <internalNodes>
            0 -1 269 2.1112404763698578e-02</internalNodes>
          <leafValues>
            -2.3808126151561737e-01 2.4647390842437744e-01</leafValues></_>
        <_>
          <internalNodes>
            0 -1 226 7.6074327807873487e-04</internalNodes>
          <leafValues>
            -2.2584393620491028e-01 2.2322078049182892e-01</leafValues></_>
        <_>
          <internalNodes>
            0 -1 323 -3.5445737012196332e-05</internalNodes>
          <leafValues>
            1.4166776835918427e-01 -3.3222699165344238e-01</leafValues></_>
        <_>
          <internalNodes>
            0 -1 354 -3.8269445300102234e-02</internalNodes>
          <leafValues>
            4.6142810583114624e-01 -1.0002195090055466e-01</leafValues></_>
        <_>
          <internalNodes>
            0 -1 463 2.8146181721240282e-03</internalNodes>
          <leafValues>
            -1.9383272528648376e-01 2.4178318679332733e-01</leafValues></_>
        <_>
          <internalNodes>
            0 -1 43 1.7899398226290941e-03</internalNodes>
          <leafValues>
            9.0028285980224609e-02 -4.7930869460105896e-01</leafValues></_>
        <_>
          <internalNodes>
            0 -1 96 3.0971324443817139e-01</internalNodes>
          <leafValues>
            4.7216683626174927e-02 -8.3874392509460449e-01</leafValues></_>
        <_>
          <internalNodes>
            0 -1 43 -1.3726516626775265e-03</internalNodes>
          <leafValues>
            -4.5009449124336243e-01 9.2462383210659027e-02</leafValues></_></weakClassifiers></_>
    <!-- stage 8 -->
    <_>
      <maxWeakCount>34</maxWeakCount>
      <stageThreshold>-1.5105671882629395e+00</stageThreshold>
      <weakClassifiers>
        <_>
          <internalNodes>
            0 -1 54 -7.2405142418574542e-05</internalNodes>
          <leafValues>
            2.5814440846443176e-01 -4.9254816770553589e-01</leafValues></_>
        <_>
          <internalNodes>
            0 -1 185 1.9956212490797043e-02</internalNodes>
          <leafValues>
            -1.9532006978988647e-01 5.1635682582855225e-01</leafValues></_>
        <_>
          <internalNodes>
            0 -1 296 7.9247578978538513e-02</internalNodes>
          <leafValues>
            -1.6257774829864502e-01 4.9914366006851196e-01</leafValues></_>
        <_>
          <internalNodes>
            0 -1 600 7.0170404796954244e-05</internalNodes>
          <leafValues>
            -3.1383374333381653e-01 2.4626192450523376e-01</leafValues></_>
        <_>
          <internalNodes>
            0 -1 56 -1.0083203669637442e-03</internalNodes>
          <leafValues>
            -5.6428426504135132e-01 1.6350780427455902e-01</leafValues></_>
        <_>
          <internalNodes>
            0 -1 82 6.1083134263753891e-02</internalNodes>
          <leafValues>
            -2.5333672761917114e-01 2.8479382395744324e-01</leafValues></_>
        <_>
          <internalNodes>
            0 -1 120 -9.6879536285996437e-03</internalNodes>
          <leafValues>
            4.7190436720848083e-01 -1.9298717379570007e-01</leafValues></_>
        <_>
          <internalNodes>
            0 -1 76 1.2427569366991520e-02</internalNodes>
          <leafValues>
            -1.0634786635637283e-01 4.8962393403053284e-01</leafValues></_>
        <_>
          <internalNodes>
            0 -1 540 -2.8258234262466431e-02</internalNodes>
          <leafValues>
            2.3994579911231995e-01 -2.6375207304954529e-01</leafValues></_>
        <_>
          <internalNodes>
            0 -1 600 1.0824077762663364e-03</internalNodes>
          <leafValues>
            7.3266655206680298e-02 -6.4589810371398926e-01</leafValues></_>
        <_>
          <internalNodes>
            0 -1 588 -9.4688415993005037e-04</internalNodes>
          <leafValues>
            -5.2234572172164917e-01 1.0327752679586411e-01</leafValues></_>
        <_>
          <internalNodes>
            0 -1 585 6.0836668126285076e-04</internalNodes>
          <leafValues>
            1.2554584443569183e-01 -4.7951108217239380e-01</leafValues></_>
        <_>
          <internalNodes>
            0 -1 573 7.8840237110853195e-03</internalNodes>
          <leafValues>
            -1.6861109435558319e-01 3.6951678991317749e-01</leafValues></_>
        <_>
          <internalNodes>
            0 -1 228 2.5087525136768818e-04</internalNodes>
          <leafValues>
            -1.6165100038051605e-01 3.1776601076126099e-01</leafValues></_>
        <_>
          <internalNodes>
            0 -1 332 9.1709534171968699e-04</internalNodes>
          <leafValues>
            -2.6155653595924377e-01 1.9583384692668915e-01</leafValues></_>
        <_>
          <internalNodes>
            0 -1 256 -2.6702687144279480e-02</internalNodes>
          <leafValues>
            3.8381642103195190e-01 -1.3865487277507782e-01</leafValues></_>
        <_>
          <internalNodes>
            0 -1 219 6.3240178860723972e-03</internalNodes>
          <leafValues>
            -2.4613749980926514e-01 2.5083515048027039e-01</leafValues></_>
        <_>
          <internalNodes>
            0 -1 410 -1.5402224846184254e-02</internalNodes>
          <leafValues>
            3.8084700703620911e-01 -1.3606096804141998e-01</leafValues></_>
        <_>
          <internalNodes>
            0 -1 333 1.8468967173248529e-03</internalNodes>
          <leafValues>
            7.4990108609199524e-02 -6.8145495653152466e-01</leafValues></_>
        <_>
          <internalNodes>
            0 -1 107 -1.1365104001015425e-03</internalNodes>
          <leafValues>
            -4.1453602910041809e-01 1.1585882306098938e-01</leafValues></_>
        <_>
          <internalNodes>
            0 -1 231 -9.0547290164977312e-04</internalNodes>
          <leafValues>
            -5.1882672309875488e-01 8.5659123957157135e-02</leafValues></_>
        <_>
          <internalNodes>
            0 -1 433 1.3423077762126923e-02</internalNodes>
          <leafValues>
            -1.4005337655544281e-01 3.1584644317626953e-01</leafValues></_>
        <_>
          <internalNodes>
            0 -1 247 9.8223984241485596e-03</internalNodes>
          <leafValues>
            -2.2650477290153503e-01 2.3082944750785828e-01</leafValues></_>
        <_>
          <internalNodes>
            0 -1 390 -2.1565251052379608e-02</internalNodes>
          <leafValues>
            3.9747965335845947e-01 -1.2434769421815872e-01</leafValues></_>
        <_>
          <internalNodes>
            0 -1 126 2.0663283765316010e-02</internalNodes>
          <leafValues>
            -2.8562074899673462e-01 2.2013732790946960e-01</leafValues></_>
        <_>
          <internalNodes>
            0 -1 263 -6.6649277869146317e-05</internalNodes>
          <leafValues>
            1.7237374186515808e-01 -2.8802430629730225e-01</leafValues></_>
        <_>
          <internalNodes>
            0 -1 314 2.6421435177326202e-02</internalNodes>
          <leafValues>
            -2.1982523798942566e-01 2.0567592978477478e-01</leafValues></_>
        <_>
          <internalNodes>
            0 -1 221 2.0377390319481492e-04</internalNodes>
          <leafValues>
            -2.4271962046623230e-01 2.0400449633598328e-01</leafValues></_>
        <_>
          <internalNodes>
            0 -1 493 -1.9075084477663040e-02</internalNodes>
          <leafValues>
            3.7728324532508850e-01 -1.1776152253150940e-01</leafValues></_>
        <_>
          <internalNodes>
            0 -1 609 1.5341828111559153e-03</internalNodes>
          <leafValues>
            8.4923721849918365e-02 -5.0551533699035645e-01</leafValues></_>
        <_>
          <internalNodes>
            0 -1 164 -1.1287214234471321e-02</internalNodes>
          <leafValues>
            3.3340042829513550e-01 -1.2523536384105682e-01</leafValues></_>
        <_>
          <internalNodes>
            0 -1 405 3.1496137380599976e-02</internalNodes>
          <leafValues>
            -1.0275735706090927e-01 4.1581496596336365e-01</leafValues></_>
        <_>
          <internalNodes>
            0 -1 592 -6.4707584679126740e-03</internalNodes>
          <leafValues>
            -6.1807006597518921e-01 6.9800660014152527e-02</leafValues></_>
        <_>
          <internalNodes>
            0 -1 441 -2.1485846489667892e-02</internalNodes>
          <leafValues>
            3.7868219614028931e-01 -1.2305396795272827e-01</leafValues></_></weakClassifiers></_>
    <!-- stage 9 -->
    <_>
      <maxWeakCount>34</maxWeakCount>
      <stageThreshold>-1.4349409341812134e+00</stageThreshold>
      <weakClassifiers>
        <_>
          <internalNodes>
            0 -1 562 3.6414985515875742e-05</internalNodes>
          <leafValues>
            -5.0216960906982422e-01 2.3293687403202057e-01</leafValues></_>
        <_>
          <internalNodes>
            0 -1 512 -8.6992308497428894e-03</internalNodes>
          <leafValues>
            3.6856395006179810e-01 -2.9112058877944946e-01</leafValues></_>
        <_>
          <internalNodes>
            0 -1 89 -7.5809482950717211e-05</internalNodes>
          <leafValues>
            2.2057522833347321e-01 -3.5714054107666016e-01</leafValues></_>
        <_>
          <internalNodes>
            0 -1 587 -1.4585568569600582e-03</internalNodes>
          <leafValues>
            -4.6554446220397949e-01 1.7430372536182404e-01</leafValues></_>
        <_>
          <internalNodes>
            0 -1 603 1.7272606492042542e-03</internalNodes>
          <leafValues>
            1.3886071741580963e-01 -4.7172558307647705e-01</leafValues></_>
        <_>
          <internalNodes>
            0 -1 10 8.5624530911445618e-03</internalNodes>
          <leafValues>
            -1.9015359878540039e-01 3.7157228589057922e-01</leafValues></_>
        <_>
          <internalNodes>
            0 -1 575 1.2930000200867653e-02</internalNodes>
          <leafValues>
            -1.7749233543872833e-01 3.6524543166160583e-01</leafValues></_>
        <_>
          <internalNodes>
            0 -1 487 8.6943693459033966e-03</internalNodes>
          <leafValues>
            -2.7715927362442017e-01 2.1908284723758698e-01</leafValues></_>
        <_>
          <internalNodes>
            0 -1 326 2.4267663247883320e-03</internalNodes>
          <leafValues>
            -2.7277088165283203e-01 2.3338533937931061e-01</leafValues></_>
        <_>
          <internalNodes>
            0 -1 347 5.0557859241962433e-02</internalNodes>
          <leafValues>
            -2.1289600431919098e-01 2.9102075099945068e-01</leafValues></_>
        <_>
          <internalNodes>
            0 -1 160 4.4608935713768005e-02</internalNodes>
          <leafValues>
            -2.6075425744056702e-01 2.4675519764423370e-01</leafValues></_>
        <_>
          <internalNodes>
            0 -1 290 3.2221578061580658e-02</internalNodes>
          <leafValues>
            -1.3270339369773865e-01 5.1508921384811401e-01</leafValues></_>
        <_>
          <internalNodes>
            0 -1 241 3.5840246826410294e-02</internalNodes>
          <leafValues>
            -2.7991846203804016e-01 2.4963153898715973e-01</leafValues></_>
        <_>
          <internalNodes>
            0 -1 235 3.2481446862220764e-02</internalNodes>
          <leafValues>
            -1.0561790317296982e-01 4.4035026431083679e-01</leafValues></_>
        <_>
          <internalNodes>
            0 -1 30 3.3308411948382854e-03</internalNodes>
          <leafValues>
            1.2554667890071869e-01 -4.2687186598777771e-01</leafValues></_>
        <_>
          <internalNodes>
            0 -1 337 4.5139342546463013e-02</internalNodes>
          <leafValues>
            -1.5280407667160034e-01 3.7481194734573364e-01</leafValues></_>
        <_>
          <internalNodes>
            0 -1 510 3.5410826967563480e-05</internalNodes>
          <leafValues>
            -2.3333142697811127e-01 2.2273594141006470e-01</leafValues></_>
        <_>
          <internalNodes>
            0 -1 8 -2.4216889869421721e-03</internalNodes>
          <leafValues>
            -4.5013925433158875e-01 1.2589691579341888e-01</leafValues></_>
        <_>
          <internalNodes>
            0 -1 335 -1.1400852352380753e-02</internalNodes>
          <leafValues>
            3.4272941946983337e-01 -1.7035150527954102e-01</leafValues></_>
        <_>
          <internalNodes>
            0 -1 130 7.0731174200773239e-03</internalNodes>
          <leafValues>
            -2.4066919088363647e-01 2.1898472309112549e-01</leafValues></_>
        <_>
          <internalNodes>
            0 -1 333 -1.2927739880979061e-03</internalNodes>
          <leafValues>
            -5.5950790643692017e-01 1.0297259688377380e-01</leafValues></_>
        <_>
          <internalNodes>
            0 -1 310 3.6306552588939667e-02</internalNodes>
          <leafValues>
            -2.3469024896621704e-01 2.0001515746116638e-01</leafValues></_>
        <_>
          <internalNodes>
            0 -1 311 -3.9714761078357697e-02</internalNodes>
          <leafValues>
            3.9980426430702209e-01 -1.1035076528787613e-01</leafValues></_>
        <_>
          <internalNodes>
            0 -1 536 1.2405957095324993e-03</internalNodes>
          <leafValues>
            9.5304727554321289e-02 -4.8905214667320251e-01</leafValues></_>
        <_>
          <internalNodes>
            0 -1 281 2.8456125874072313e-03</internalNodes>
          <leafValues>
            -2.0108072459697723e-01 2.1242113411426544e-01</leafValues></_>
        <_>
          <internalNodes>
            0 -1 50 8.5125560872256756e-04</internalNodes>
          <leafValues>
            1.0737814009189606e-01 -4.1946861147880554e-01</leafValues></_>
        <_>
          <internalNodes>
            0 -1 135 -2.9195787385106087e-02</internalNodes>
          <leafValues>
            2.7064633369445801e-01 -1.8510223925113678e-01</leafValues></_>
        <_>
          <internalNodes>
            0 -1 277 7.5128418393433094e-03</internalNodes>
          <leafValues>
            -2.1997921168804169e-01 2.3108832538127899e-01</leafValues></_>
        <_>
          <internalNodes>
            0 -1 612 2.1208091638982296e-03</internalNodes>
          <leafValues>
            1.0376720130443573e-01 -4.4268634915351868e-01</leafValues></_>
        <_>
          <internalNodes>
            0 -1 64 2.8768306970596313e-01</internalNodes>
          <leafValues>
            4.5707140117883682e-02 -7.5025838613510132e-01</leafValues></_>
        <_>
          <internalNodes>
            0 -1 481 -5.3446209058165550e-03</internalNodes>
          <leafValues>
            2.6403865218162537e-01 -1.4876207709312439e-01</leafValues></_>
        <_>
          <internalNodes>
            0 -1 459 8.0935627920553088e-05</internalNodes>
          <leafValues>
            -2.7178525924682617e-01 1.6421625018119812e-01</leafValues></_>
        <_>
          <internalNodes>
            0 -1 497 -7.3740084189921618e-05</internalNodes>
          <leafValues>
            1.7478707432746887e-01 -2.9727166891098022e-01</leafValues></_>
        <_>
          <internalNodes>
            0 -1 450 -5.7319430634379387e-03</internalNodes>
          <leafValues>
            2.8168398141860962e-01 -1.3586404919624329e-01</leafValues></_></weakClassifiers></_>
    <!-- stage 10 -->
    <_>
      <maxWeakCount>39</maxWeakCount>
      <stageThreshold>-1.4195889234542847e+00</stageThreshold>
      <weakClassifiers>
        <_>
          <internalNodes>
            0 -1 74 -2.3885193467140198e-01</internalNodes>
          <leafValues>
            2.4007633328437805e-01 -4.5579710602760315e-01</leafValues></_>
        <_>
          <internalNodes>
            0 -1 143 7.3058202862739563e-02</internalNodes>
          <leafValues>
            -2.5702333450317383e-01 3.4925243258476257e-01</leafValues></_>
        <_>
          <internalNodes>
            0 -1 138 -7.4049654358532280e-05</internalNodes>
          <leafValues>
            2.1245153248310089e-01 -3.6146458983421326e-01</leafValues></_>
        <_>
          <internalNodes>
            0 -1 19 -5.6061401963233948e-02</internalNodes>
          <leafValues>
            -5.3815788030624390e-01 1.7709180712699890e-01</leafValues></_>
        <_>
          <internalNodes>
            0 -1 179 4.6371719799935818e-03</internalNodes>
          <leafValues>
            -2.5467073917388916e-01 2.4559156596660614e-01</leafValues></_>
        <_>
          <internalNodes>
            0 -1 328 -1.4909820631146431e-02</internalNodes>
          <leafValues>
            3.7253254652023315e-01 -2.0248706638813019e-01</leafValues></_>
        <_>
          <internalNodes>
            0 -1 138 -1.3418232556432486e-03</internalNodes>
          <leafValues>
            -5.2338552474975586e-01 1.5493695437908173e-01</leafValues></_>
        <_>
          <internalNodes>
            0 -1 98 2.0289100706577301e-02</internalNodes>
          <leafValues>
            1.2526120245456696e-01 -4.3122887611389160e-01</leafValues></_>
        <_>
          <internalNodes>
            0 -1 237 2.4451140314340591e-02</internalNodes>
          <leafValues>
            -1.2384957075119019e-01 4.7947546839714050e-01</leafValues></_>
        <_>
          <internalNodes>
            0 -1 86 6.4005539752542973e-03</internalNodes>
          <leafValues>
            -1.8192765116691589e-01 2.6944756507873535e-01</leafValues></_>
        <_>
          <internalNodes>
            0 -1 152 5.4813712835311890e-02</internalNodes>
          <leafValues>
            -2.2303621470928192e-01 2.2376738488674164e-01</leafValues></_>
        <_>
          <internalNodes>
            0 -1 394 -2.0837195217609406e-02</internalNodes>
          <leafValues>
            4.4389021396636963e-01 -1.2219691276550293e-01</leafValues></_>
        <_>
          <internalNodes>
            0 -1 211 -1.6485883388668299e-03</internalNodes>
          <leafValues>
            -3.1979697942733765e-01 1.4569270610809326e-01</leafValues></_>
        <_>
          <internalNodes>
            0 -1 153 -4.0004849433898926e-02</internalNodes>
          <leafValues>
            4.3041178584098816e-01 -1.1378157883882523e-01</leafValues></_>
        <_>
          <internalNodes>
            0 -1 597 3.7101854104548693e-05</internalNodes>
          <leafValues>
            -2.6196044683456421e-01 1.7185947299003601e-01</leafValues></_>
        <_>
          <internalNodes>
            0 -1 489 1.3529185205698013e-02</internalNodes>
          <leafValues>
            -1.9317923486232758e-01 2.3060511052608490e-01</leafValues></_>
        <_>
          <internalNodes>
            0 -1 472 -2.0645003765821457e-02</internalNodes>
          <leafValues>
            4.0748268365859985e-01 -1.2736740708351135e-01</leafValues></_>
        <_>
          <internalNodes>
            0 -1 480 -6.8286865949630737e-02</internalNodes>
          <leafValues>
            4.1854965686798096e-01 -9.7939208149909973e-02</leafValues></_>
        <_>
          <internalNodes>
            0 -1 598 1.5126490034162998e-03</internalNodes>
          <leafValues>
            7.5524739921092987e-02 -6.2537425756454468e-01</leafValues></_>
        <_>
          <internalNodes>
            0 -1 585 -1.3794089900329709e-03</internalNodes>
          <leafValues>
            -4.3519666790962219e-01 9.0023949742317200e-02</leafValues></_>
        <_>
          <internalNodes>
            0 -1 583 6.1715330230072141e-04</internalNodes>
          <leafValues>
            8.2610540091991425e-02 -5.4346543550491333e-01</leafValues></_>
        <_>
          <internalNodes>
            0 -1 200 3.5322666168212891e-02</internalNodes>
          <leafValues>
            -2.3645271360874176e-01 1.7854744195938110e-01</leafValues></_>
        <_>
          <internalNodes>
            0 -1 369 3.3031012862920761e-03</internalNodes>
          <leafValues>
            -2.3988538980484009e-01 1.9279299676418304e-01</leafValues></_>
        <_>
          <internalNodes>
            0 -1 403 -2.9990918934345245e-02</internalNodes>
          <leafValues>
            4.2051255702972412e-01 -1.1996589601039886e-01</leafValues></_>
        <_>
          <internalNodes>
            0 -1 261 2.5647385045886040e-02</internalNodes>
          <leafValues>
            -2.3718960583209991e-01 1.9839406013488770e-01</leafValues></_>
        <_>
          <internalNodes>
            0 -1 309 -8.3229225128889084e-03</internalNodes>
          <leafValues>
            3.2240793108940125e-01 -1.4568680524826050e-01</leafValues></_>
        <_>
          <internalNodes>
            0 -1 244 3.6695875227451324e-02</internalNodes>
          <leafValues>
            -2.1486611664295197e-01 1.8156035244464874e-01</leafValues></_>
        <_>
          <internalNodes>
            0 -1 387 3.9206258952617645e-02</internalNodes>
          <leafValues>
            -2.1813799440860748e-01 2.0800337195396423e-01</leafValues></_>
        <_>
          <internalNodes>
            0 -1 65 -6.0403067618608475e-03</internalNodes>
          <leafValues>
            -3.6023858189582825e-01 1.0826485604047775e-01</leafValues></_>
        <_>
          <internalNodes>
            0 -1 148 9.4928778707981110e-03</internalNodes>
          <leafValues>
            -2.0472458004951477e-01 1.8071377277374268e-01</leafValues></_>
        <_>
          <internalNodes>
            0 -1 15 4.3782055377960205e-01</internalNodes>
          <leafValues>
            6.9177128374576569e-02 -5.9628850221633911e-01</leafValues></_>
        <_>
          <internalNodes>
            0 -1 102 -9.9025794770568609e-04</internalNodes>
          <leafValues>
            -3.8014340400695801e-01 1.0660262405872345e-01</leafValues></_>
        <_>
          <internalNodes>
            0 -1 318 1.2023597955703735e-03</internalNodes>
          <leafValues>
            -2.7321428060531616e-01 1.5180531144142151e-01</leafValues></_>
        <_>
          <internalNodes>
            0 -1 517 1.0096937417984009e-02</internalNodes>
          <leafValues>
            -1.5712824463844299e-01 2.5236710906028748e-01</leafValues></_>
        <_>
          <internalNodes>
            0 -1 543 3.5731129348278046e-02</internalNodes>
          <leafValues>
            -1.3237212598323822e-01 2.9796540737152100e-01</leafValues></_>
        <_>
          <internalNodes>
            0 -1 174 -7.1800342993810773e-05</internalNodes>
          <leafValues>
            1.3844342529773712e-01 -2.7524381875991821e-01</leafValues></_>
        <_>
          <internalNodes>
            0 -1 372 2.8613425092771649e-04</internalNodes>
          <leafValues>
            -2.2417418658733368e-01 1.8449373543262482e-01</leafValues></_>
        <_>
          <internalNodes>
            0 -1 227 2.7079838328063488e-03</internalNodes>
          <leafValues>
            -1.1685889214277267e-01 3.0198267102241516e-01</leafValues></_>
        <_>
          <internalNodes>
            0 -1 264 1.5739910304546356e-03</internalNodes>
          <leafValues>
            1.1185657978057861e-01 -3.3789572119712830e-01</leafValues></_></weakClassifiers></_>
    <!-- stage 11 -->
    <_>
      <maxWeakCount>44</maxWeakCount>
      <stageThreshold>-1.4934993982315063e+00</stageThreshold>
      <weakClassifiers>
        <_>
          <internalNodes>
            0 -1 93 -7.1797214332036674e-05</internalNodes>
          <leafValues>
            2.3240776360034943e-01 -4.4566011428833008e-01</leafValues></_>
        <_>
          <internalNodes>
            0 -1 11 7.9962208867073059e-02</internalNodes>
          <leafValues>
            -4.9108144640922546e-01 1.9519287347793579e-01</leafValues></_>
        <_>
          <internalNodes>
            0 -1 511 -2.3004859685897827e-03</internalNodes>
          <leafValues>
            -4.4449776411056519e-01 1.8715095520019531e-01</leafValues></_>
        <_>
          <internalNodes>
            0 -1 454 4.8162102699279785e-02</internalNodes>
          <leafValues>
            -2.2200489044189453e-01 2.8473436832427979e-01</leafValues></_>
        <_>
          <internalNodes>
            0 -1 180 -6.9947462179698050e-05</internalNodes>
          <leafValues>
            1.8113122880458832e-01 -3.3126464486122131e-01</leafValues></_>
        <_>
          <internalNodes>
            0 -1 553 3.0633970163762569e-03</internalNodes>
          <leafValues>
            -2.1257343888282776e-01 2.7375543117523193e-01</leafValues></_>
        <_>
          <internalNodes>
            0 -1 545 2.4221066385507584e-02</internalNodes>
          <leafValues>
            -1.7705099284648895e-01 3.6398103833198547e-01</leafValues></_>
        <_>
          <internalNodes>
            0 -1 430 1.4288149774074554e-01</internalNodes>
          <leafValues>
            1.1474280804395676e-01 -4.8658674955368042e-01</leafValues></_>
        <_>
          <internalNodes>
            0 -1 94 1.2179140467196703e-03</internalNodes>
          <leafValues>
            1.1637648940086365e-01 -4.5135363936424255e-01</leafValues></_>
        <_>
          <internalNodes>
            0 -1 94 -7.9157087020576000e-04</internalNodes>
          <leafValues>
            -4.0655669569969177e-01 1.2096501141786575e-01</leafValues></_>
        <_>
          <internalNodes>
            0 -1 81 1.2594818137586117e-02</internalNodes>
          <leafValues>
            -2.1734043955802917e-01 2.0743361115455627e-01</leafValues></_>
        <_>
          <internalNodes>
            0 -1 84 -6.9752158597111702e-03</internalNodes>
          <leafValues>
            3.9705711603164673e-01 -1.1694478988647461e-01</leafValues></_>
        <_>
          <internalNodes>
            0 -1 301 3.6158733069896698e-02</internalNodes>
          <leafValues>
            -2.4678802490234375e-01 1.9412551820278168e-01</leafValues></_>
        <_>
          <internalNodes>
            0 -1 32 -1.9653451442718506e-01</internalNodes>
          <leafValues>
            -6.6620790958404541e-01 7.6567821204662323e-02</leafValues></_>
        <_>
          <internalNodes>
            0 -1 216 1.6051026759669185e-03</internalNodes>
          <leafValues>
            -2.7444633841514587e-01 1.5769948065280914e-01</leafValues></_>
        <_>
          <internalNodes>
            0 -1 371 6.5351007506251335e-03</internalNodes>
          <leafValues>
            -2.1789567172527313e-01 2.1784774959087372e-01</leafValues></_>
        <_>
          <internalNodes>
            0 -1 445 4.1511844843626022e-02</internalNodes>
          <leafValues>
            -2.1353673934936523e-01 2.2604817152023315e-01</leafValues></_>
        <_>
          <internalNodes>
            0 -1 586 -5.9184804558753967e-04</internalNodes>
          <leafValues>
            -3.9082825183868408e-01 1.2441354244947433e-01</leafValues></_>
        <_>
          <internalNodes>
            0 -1 93 -1.0552827734500170e-03</internalNodes>
          <leafValues>
            -4.9308708310127258e-01 7.4213199317455292e-02</leafValues></_>
        <_>
          <internalNodes>
            0 -1 218 1.8820952624082565e-02</internalNodes>
          <leafValues>
            -1.0679971426725388e-01 4.4503343105316162e-01</leafValues></_>
        <_>
          <internalNodes>
            0 -1 303 -3.1675562262535095e-02</internalNodes>
          <leafValues>
            3.6541083455085754e-01 -1.2276916950941086e-01</leafValues></_>
        <_>
          <internalNodes>
            0 -1 118 -1.2396008521318436e-01</internalNodes>
          <leafValues>
            9.2004783451557159e-02 -5.6434756517410278e-01</leafValues></_>
        <_>
          <internalNodes>
            0 -1 336 -1.6226977109909058e-02</internalNodes>
          <leafValues>
            3.3581650257110596e-01 -1.2602806091308594e-01</leafValues></_>
        <_>
          <internalNodes>
            0 -1 199 1.3989838771522045e-04</internalNodes>
          <leafValues>
            -2.5601929426193237e-01 1.5431919693946838e-01</leafValues></_>
        <_>
          <internalNodes>
            0 -1 566 1.4899778179824352e-02</internalNodes>
          <leafValues>
            6.8666376173496246e-02 -5.9640181064605713e-01</leafValues></_>
        <_>
          <internalNodes>
            0 -1 223 2.3960010148584843e-03</internalNodes>
          <leafValues>
            -2.0358493924140930e-01 1.7771221697330475e-01</leafValues></_>
        <_>
          <internalNodes>
            0 -1 229 3.4282230772078037e-03</internalNodes>
          <leafValues>
            -1.2898865342140198e-01 2.9549959301948547e-01</leafValues></_>
        <_>
          <internalNodes>
            0 -1 45 -1.8367391312494874e-03</internalNodes>
          <leafValues>
            -4.4290843605995178e-01 8.7442025542259216e-02</leafValues></_>
        <_>
          <internalNodes>
            0 -1 340 7.2228126227855682e-03</internalNodes>
          <leafValues>
            -1.5412445366382599e-01 2.5204089283943176e-01</leafValues></_>
        <_>
          <internalNodes>
            0 -1 550 -3.0695918947458267e-02</internalNodes>
          <leafValues>
            3.6991015076637268e-01 -1.0387406498193741e-01</leafValues></_>
        <_>
          <internalNodes>
            0 -1 167 8.6312807979993522e-05</internalNodes>
          <leafValues>
            -2.4817329645156860e-01 1.5627436339855194e-01</leafValues></_>
        <_>
          <internalNodes>
            0 -1 447 3.4982241690158844e-02</internalNodes>
          <leafValues>
            -1.1391132324934006e-01 3.2329529523849487e-01</leafValues></_>
        <_>
          <internalNodes>
            0 -1 44 -2.8491076081991196e-02</internalNodes>
          <leafValues>
            -8.7496817111968994e-01 4.1692439466714859e-02</leafValues></_>
        <_>
          <internalNodes>
            0 -1 421 6.7175086587667465e-04</internalNodes>
          <leafValues>
            -1.9821852445602417e-01 1.7029139399528503e-01</leafValues></_>
        <_>
          <internalNodes>
            0 -1 106 -4.6557492017745972e-01</internalNodes>
          <leafValues>
            2.7823343873023987e-01 -1.2583903968334198e-01</leafValues></_>
        <_>
          <internalNodes>
            0 -1 488 3.6745570600032806e-02</internalNodes>
          <leafValues>
            -9.7340703010559082e-02 3.5211136937141418e-01</leafValues></_>
        <_>
          <internalNodes>
            0 -1 601 1.4129625633358955e-03</internalNodes>
          <leafValues>
            7.4896290898323059e-02 -4.8555305600166321e-01</leafValues></_>
        <_>
          <internalNodes>
            0 -1 141 2.9092669486999512e-01</internalNodes>
          <leafValues>
            4.3575704097747803e-02 -6.8588668107986450e-01</leafValues></_>
        <_>
          <internalNodes>
            0 -1 423 8.0216675996780396e-04</internalNodes>
          <leafValues>
            -1.4924761652946472e-01 2.2239015996456146e-01</leafValues></_>
        <_>
          <internalNodes>
            0 -1 378 -2.6467291172593832e-03</internalNodes>
          <leafValues>
            -6.1441260576248169e-01 5.6221920996904373e-02</leafValues></_>
        <_>
          <internalNodes>
            0 -1 419 2.4775709025561810e-03</internalNodes>
          <leafValues>
            -2.0470544695854187e-01 1.5678422152996063e-01</leafValues></_>
        <_>
          <internalNodes>
            0 -1 245 -4.1637592017650604e-02</internalNodes>
          <leafValues>
            3.3654299378395081e-01 -1.0231866687536240e-01</leafValues></_>
        <_>
          <internalNodes>
            0 -1 544 -3.1581133604049683e-02</internalNodes>
          <leafValues>
            4.8293280601501465e-01 -6.0273826122283936e-02</leafValues></_>
        <_>
          <internalNodes>
            0 -1 466 -1.0341982124373317e-03</internalNodes>
          <leafValues>
            -3.9750212430953979e-01 8.3652995526790619e-02</leafValues></_></weakClassifiers></_>
    <!-- stage 12 -->
    <_>
      <maxWeakCount>47</maxWeakCount>
      <stageThreshold>-1.4572367668151855e+00</stageThreshold>
      <weakClassifiers>
        <_>
          <internalNodes>
            0 -1 560 5.5258965585380793e-04</internalNodes>
          <leafValues>
            -3.9208409190177917e-01 2.6605120301246643e-01</leafValues></_>
        <_>
          <internalNodes>
            0 -1 69 3.3217789605259895e-03</internalNodes>
          <leafValues>
            -2.2338730096817017e-01 3.9984887838363647e-01</leafValues></_>
        <_>
          <internalNodes>
            0 -1 56 -7.2887247370090336e-05</internalNodes>
          <leafValues>
            2.2171513736248016e-01 -3.4122684597969055e-01</leafValues></_>
        <_>
          <internalNodes>
            0 -1 384 -2.1209703758358955e-02</internalNodes>
          <leafValues>
            1.3435755670070648e-01 -4.2770659923553467e-01</leafValues></_>
        <_>
          <internalNodes>
            0 -1 102 1.4407001435756683e-03</internalNodes>
          <leafValues>
            1.3642863929271698e-01 -4.3288549780845642e-01</leafValues></_>
        <_>
          <internalNodes>
            0 -1 607 -3.7586811231449246e-05</internalNodes>
          <leafValues>
            1.5313087403774261e-01 -3.6636003851890564e-01</leafValues></_>
        <_>
          <internalNodes>
            0 -1 519 1.7208658158779144e-02</internalNodes>
          <leafValues>
            -2.1416218578815460e-01 3.2672163844108582e-01</leafValues></_>
        <_>
          <internalNodes>
            0 -1 408 5.2366979420185089e-02</internalNodes>
          <leafValues>
            -1.4914581179618835e-01 3.3371111750602722e-01</leafValues></_>
        <_>
          <internalNodes>
            0 -1 102 -7.4497656896710396e-04</internalNodes>
          <leafValues>
            -4.5479685068130493e-01 7.6403900980949402e-02</leafValues></_>
        <_>
          <internalNodes>
            0 -1 213 3.4979797899723053e-02</internalNodes>
          <leafValues>
            -2.1561573445796967e-01 2.1624772250652313e-01</leafValues></_>
        <_>
          <internalNodes>
            0 -1 401 -7.1353383362293243e-02</internalNodes>
          <leafValues>
            4.3691235780715942e-01 -1.2343345582485199e-01</leafValues></_>
        <_>
          <internalNodes>
            0 -1 321 2.9405886307358742e-03</internalNodes>
          <leafValues>
            -2.8906401991844177e-01 2.0849660038948059e-01</leafValues></_>
        <_>
          <internalNodes>
            0 -1 525 -2.2357776761054993e-02</internalNodes>
          <leafValues>
            3.8227862119674683e-01 -1.2236673384904861e-01</leafValues></_>
        <_>
          <internalNodes>
            0 -1 56 -1.0131285525858402e-03</internalNodes>
          <leafValues>
            -5.3492075204849243e-01 8.2239016890525818e-02</leafValues></_>
        <_>
          <internalNodes>
            0 -1 240 3.7511065602302551e-02</internalNodes>
          <leafValues>
            -1.0231068730354309e-01 4.4777908921241760e-01</leafValues></_>
        <_>
          <internalNodes>
            0 -1 572 9.6497684717178345e-03</internalNodes>
          <leafValues>
            -1.1472123116254807e-01 3.8331550359725952e-01</leafValues></_>
        <_>
          <internalNodes>
            0 -1 114 5.4626096040010452e-02</internalNodes>
          <leafValues>
            -1.7094577848911285e-01 2.0780257880687714e-01</leafValues></_>
        <_>
          <internalNodes>
            0 -1 243 -1.8695332109928131e-02</internalNodes>
          <leafValues>
            3.7152349948883057e-01 -1.0266458243131638e-01</leafValues></_>
        <_>
          <internalNodes>
            0 -1 514 1.3199359178543091e-01</internalNodes>
          <leafValues>
            -1.1508428305387497e-01 3.6780661344528198e-01</leafValues></_>
        <_>
          <internalNodes>
            0 -1 330 3.8935076445341110e-03</internalNodes>
          <leafValues>
            -2.2049964964389801e-01 2.0164404809474945e-01</leafValues></_>
        <_>
          <internalNodes>
            0 -1 461 -6.9038011133670807e-05</internalNodes>
          <leafValues>
            1.1567782610654831e-01 -3.3460721373558044e-01</leafValues></_>
        <_>
          <internalNodes>
            0 -1 166 -4.4117230921983719e-02</internalNodes>
          <leafValues>
            3.8215273618698120e-01 -9.7258962690830231e-02</leafValues></_>
        <_>
          <internalNodes>
            0 -1 215 3.2003538217395544e-04</internalNodes>
          <leafValues>
            -2.4289394915103912e-01 1.6236203908920288e-01</leafValues></_>
        <_>
          <internalNodes>
            0 -1 315 -2.0936256274580956e-02</internalNodes>
          <leafValues>
            3.4932482242584229e-01 -1.1030157655477524e-01</leafValues></_>
        <_>
          <internalNodes>
            0 -1 465 -1.0169595479965210e-03</internalNodes>
          <leafValues>
            2.0863091945648193e-01 -1.7671792209148407e-01</leafValues></_>
        <_>
          <internalNodes>
            0 -1 111 -4.0042959153652191e-02</internalNodes>
          <leafValues>
            3.6953121423721313e-01 -9.7024217247962952e-02</leafValues></_>
        <_>
          <internalNodes>
            0 -1 267 -3.6539979191729799e-05</internalNodes>
          <leafValues>
            1.2418252229690552e-01 -3.0691081285476685e-01</leafValues></_>
        <_>
          <internalNodes>
            0 -1 222 7.1184168336912990e-04</internalNodes>
          <leafValues>
            -2.3566246032714844e-01 1.7608132958412170e-01</leafValues></_>
        <_>
          <internalNodes>
            0 -1 176 -2.8220925480127335e-02</internalNodes>
          <leafValues>
            2.6673033833503723e-01 -1.4430141448974609e-01</leafValues></_>
        <_>
          <internalNodes>
            0 -1 580 1.7522925045341253e-03</internalNodes>
          <leafValues>
            9.1001011431217194e-02 -4.1126883029937744e-01</leafValues></_>
        <_>
          <internalNodes>
            0 -1 582 -5.7646835921332240e-04</internalNodes>
          <leafValues>
            -4.6583846211433411e-01 9.0719357132911682e-02</leafValues></_>
        <_>
          <internalNodes>
            0 -1 596 -3.4352256916463375e-03</internalNodes>
          <leafValues>
            2.9980850219726562e-01 -1.3239662349224091e-01</leafValues></_>
        <_>
          <internalNodes>
            0 -1 577 7.3541905730962753e-03</internalNodes>
          <leafValues>
            -1.0934638977050781e-01 3.0102020502090454e-01</leafValues></_>
        <_>
          <internalNodes>
            0 -1 568 9.5372637733817101e-03</internalNodes>
          <leafValues>
            5.7742763310670853e-02 -6.2921071052551270e-01</leafValues></_>
        <_>
          <internalNodes>
            0 -1 62 1.4679126441478729e-02</internalNodes>
          <leafValues>
            -1.2437412887811661e-01 2.7365586161613464e-01</leafValues></_>
        <_>
          <internalNodes>
            0 -1 275 -2.8421033173799515e-02</internalNodes>
          <leafValues>
            -7.2977668046951294e-01 5.0180844962596893e-02</leafValues></_>
        <_>
          <internalNodes>
            0 -1 113 -1.0193688794970512e-02</internalNodes>
          <leafValues>
            2.8672686219215393e-01 -1.2206913530826569e-01</leafValues></_>
        <_>
          <internalNodes>
            0 -1 376 -1.2858260888606310e-03</internalNodes>
          <leafValues>
            -4.7336640954017639e-01 7.2860926389694214e-02</leafValues></_>
        <_>
          <internalNodes>
            0 -1 142 9.5494892448186874e-03</internalNodes>
          <leafValues>
            -1.2260137498378754e-01 2.6011034846305847e-01</leafValues></_>
        <_>
          <internalNodes>
            0 -1 567 -7.7422079630196095e-04</internalNodes>
          <leafValues>
            -3.5358646512031555e-01 8.9851312339305878e-02</leafValues></_>
        <_>
          <internalNodes>
            0 -1 498 4.2065660818479955e-04</internalNodes>
          <leafValues>
            -2.1918071806430817e-01 1.3527429103851318e-01</leafValues></_>
        <_>
          <internalNodes>
            0 -1 255 4.3973285704851151e-02</internalNodes>
          <leafValues>
            -1.0966730117797852e-01 3.1320586800575256e-01</leafValues></_>
        <_>
          <internalNodes>
            0 -1 346 -5.5844457820057869e-03</internalNodes>
          <leafValues>
            2.5438964366912842e-01 -1.3048723340034485e-01</leafValues></_>
        <_>
          <internalNodes>
            0 -1 398 7.8069191658869386e-05</internalNodes>
          <leafValues>
            -2.3627716302871704e-01 1.4341385662555695e-01</leafValues></_>
        <_>
          <internalNodes>
            0 -1 363 -9.2863680038135499e-05</internalNodes>
          <leafValues>
            -2.4710261821746826e-01 1.3924355804920197e-01</leafValues></_>
        <_>
          <internalNodes>
            0 -1 257 -4.4413898140192032e-02</internalNodes>
          <leafValues>
            3.9134579896926880e-01 -9.9014326930046082e-02</leafValues></_>
        <_>
          <internalNodes>
            0 -1 361 -1.0853989806491882e-04</internalNodes>
          <leafValues>
            -2.2981089353561401e-01 1.4351102709770203e-01</leafValues></_></weakClassifiers></_>
    <!-- stage 13 -->
    <_>
      <maxWeakCount>46</maxWeakCount>
      <stageThreshold>-1.3905267715454102e+00</stageThreshold>
      <weakClassifiers>
        <_>
          <internalNodes>
            0 -1 52 -6.9557092501781881e-05</internalNodes>
          <leafValues>
            2.2754147648811340e-01 -4.3271672725677490e-01</leafValues></_>
        <_>
          <internalNodes>
            0 -1 20 2.3654364049434662e-02</internalNodes>
          <leafValues>
            -4.5628699660301208e-01 1.7457368969917297e-01</leafValues></_>
        <_>
          <internalNodes>
            0 -1 535 3.5445737012196332e-05</internalNodes>
          <leafValues>
            -3.2923746109008789e-01 2.4114266037940979e-01</leafValues></_>
        <_>
          <internalNodes>
            0 -1 584 -7.9814321361482143e-04</internalNodes>
          <leafValues>
            -4.3578740954399109e-01 1.2314974516630173e-01</leafValues></_>
        <_>
          <internalNodes>
            0 -1 569 -4.0452210232615471e-03</internalNodes>
          <leafValues>
            3.4642228484153748e-01 -1.7344292998313904e-01</leafValues></_>
        <_>
          <internalNodes>
            0 -1 52 -1.0859037283807993e-03</internalNodes>
          <leafValues>
            -5.0618904829025269e-01 9.4595067203044891e-02</leafValues></_>
        <_>
          <internalNodes>
            0 -1 557 1.3604283332824707e-02</internalNodes>
          <leafValues>
            -2.1208173036575317e-01 2.7872255444526672e-01</leafValues></_>
        <_>
          <internalNodes>
            0 -1 362 4.2261734604835510e-02</internalNodes>
          <leafValues>
            -1.5752471983432770e-01 2.8134334087371826e-01</leafValues></_>
        <_>
          <internalNodes>
            0 -1 494 -1.1213122867047787e-02</internalNodes>
          <leafValues>
            3.3409905433654785e-01 -2.0365110039710999e-01</leafValues></_>
        <_>
          <internalNodes>
            0 -1 605 4.9321446567773819e-03</internalNodes>
          <leafValues>
            1.7672106623649597e-01 -3.2256963849067688e-01</leafValues></_>
        <_>
          <internalNodes>
            0 -1 97 5.7063456624746323e-03</internalNodes>
          <leafValues>
            8.3204440772533417e-02 -4.1270732879638672e-01</leafValues></_>
        <_>
          <internalNodes>
            0 -1 523 -1.3866628520190716e-02</internalNodes>
          <leafValues>
            3.5211071372032166e-01 -1.2072332948446274e-01</leafValues></_>
        <_>
          <internalNodes>
            0 -1 350 4.0252976119518280e-02</internalNodes>
          <leafValues>
            -2.3821915686130524e-01 1.9500687718391418e-01</leafValues></_>
        <_>
          <internalNodes>
            0 -1 427 6.1699748039245605e-02</internalNodes>
          <leafValues>
            -1.2894919514656067e-01 3.6766272783279419e-01</leafValues></_>
        <_>
          <internalNodes>
            0 -1 151 1.5224831178784370e-02</internalNodes>
          <leafValues>
            -1.2341734021902084e-01 3.7506592273712158e-01</leafValues></_>
        <_>
          <internalNodes>
            0 -1 278 -1.5318995714187622e-01</internalNodes>
          <leafValues>
            4.9336642026901245e-01 -8.7992168962955475e-02</leafValues></_>
        <_>
          <internalNodes>
            0 -1 600 7.1292946813628078e-05</internalNodes>
          <leafValues>
            -2.2018086910247803e-01 1.8869985640048981e-01</leafValues></_>
        <_>
          <internalNodes>
            0 -1 204 3.6254666745662689e-02</internalNodes>
          <leafValues>
            -2.0417299866676331e-01 1.8355017900466919e-01</leafValues></_>
        <_>
          <internalNodes>
            0 -1 336 2.4254089221358299e-02</internalNodes>
          <leafValues>
            -1.3549393415451050e-01 3.1217324733734131e-01</leafValues></_>
        <_>
          <internalNodes>
            0 -1 182 2.2615803405642509e-02</internalNodes>
          <leafValues>
            -1.0991010069847107e-01 3.7403208017349243e-01</leafValues></_>
        <_>
          <internalNodes>
            0 -1 294 -1.7901007086038589e-02</internalNodes>
          <leafValues>
            4.1960200667381287e-01 -9.3613646924495697e-02</leafValues></_>
        <_>
          <internalNodes>
            0 -1 501 3.8546906580450013e-05</internalNodes>
          <leafValues>
            -2.3253011703491211e-01 1.7246426641941071e-01</leafValues></_>
        <_>
          <internalNodes>
            0 -1 295 3.8389328122138977e-01</internalNodes>
          <leafValues>
            6.9298043847084045e-02 -5.9196227788925171e-01</leafValues></_>
        <_>
          <internalNodes>
            0 -1 509 -8.5475970990955830e-04</internalNodes>
          <leafValues>
            -4.0899088978767395e-01 8.9802332222461700e-02</leafValues></_>
        <_>
          <internalNodes>
            0 -1 23 -1.3338588178157806e-02</internalNodes>
          <leafValues>
            -7.2660273313522339e-01 4.3890062719583511e-02</leafValues></_>
        <_>
          <internalNodes>
            0 -1 556 8.2510785432532430e-04</internalNodes>
          <leafValues>
            -2.1097090840339661e-01 1.5670320391654968e-01</leafValues></_>
        <_>
          <internalNodes>
            0 -1 565 -4.1942559182643890e-02</internalNodes>
          <leafValues>
            -5.7935363054275513e-01 5.4972324520349503e-02</leafValues></_>
        <_>
          <internalNodes>
            0 -1 327 2.7512233704328537e-02</internalNodes>
          <leafValues>
            -1.5624511241912842e-01 2.0165725052356720e-01</leafValues></_>
        <_>
          <internalNodes>
            0 -1 329 -3.8557405787287280e-05</internalNodes>
          <leafValues>
            1.1591885983943939e-01 -3.0128875374794006e-01</leafValues></_>
        <_>
          <internalNodes>
            0 -1 416 -2.2773759439587593e-02</internalNodes>
          <leafValues>
            3.8152423501014709e-01 -9.9798947572708130e-02</leafValues></_>
        <_>
          <internalNodes>
            0 -1 495 -3.8781404495239258e-02</internalNodes>
          <leafValues>
            3.8185840845108032e-01 -9.5845483243465424e-02</leafValues></_>
        <_>
          <internalNodes>
            0 -1 409 3.1131999567151070e-02</internalNodes>
          <leafValues>
            3.7700355052947998e-02 -9.1503721475601196e-01</leafValues></_>
        <_>
          <internalNodes>
            0 -1 518 -2.0960718393325806e-02</internalNodes>
          <leafValues>
            3.5477161407470703e-01 -1.0184360295534134e-01</leafValues></_>
        <_>
          <internalNodes>
            0 -1 482 3.8817710446892306e-05</internalNodes>
          <leafValues>
            -2.4357980489730835e-01 1.5365427732467651e-01</leafValues></_>
        <_>
          <internalNodes>
            0 -1 524 1.9240365363657475e-03</internalNodes>
          <leafValues>
            -2.5039985775947571e-01 1.4795598387718201e-01</leafValues></_>
        <_>
          <internalNodes>
            0 -1 479 -8.9398138225078583e-03</internalNodes>
          <leafValues>
            2.9550147056579590e-01 -1.3271044194698334e-01</leafValues></_>
        <_>
          <internalNodes>
            0 -1 48 6.1112781986594200e-04</internalNodes>
          <leafValues>
            9.6652887761592865e-02 -3.4766688942909241e-01</leafValues></_>
        <_>
          <internalNodes>
            0 -1 342 2.8581684827804565e-01</internalNodes>
          <leafValues>
            4.8279546201229095e-02 -6.5003907680511475e-01</leafValues></_>
        <_>
          <internalNodes>
            0 -1 426 -6.8257702514529228e-03</internalNodes>
          <leafValues>
            -6.2950223684310913e-01 4.7801401466131210e-02</leafValues></_>
        <_>
          <internalNodes>
            0 -1 322 -3.1460165977478027e-02</internalNodes>
          <leafValues>
            -8.3744853734970093e-01 2.8473287820816040e-02</leafValues></_>
        <_>
          <internalNodes>
            0 -1 70 5.1462221145629883e-01</internalNodes>
          <leafValues>
            3.8993403315544128e-02 -6.1594271659851074e-01</leafValues></_>
        <_>
          <internalNodes>
            0 -1 28 2.0859476178884506e-02</internalNodes>
          <leafValues>
            -3.1619676947593689e-01 9.3621864914894104e-02</leafValues></_>
        <_>
          <internalNodes>
            0 -1 92 -1.2679659761488438e-02</internalNodes>
          <leafValues>
            2.7499088644981384e-01 -1.1055812239646912e-01</leafValues></_>
        <_>
          <internalNodes>
            0 -1 134 -5.2488490473479033e-04</internalNodes>
          <leafValues>
            2.2601188719272614e-01 -1.4872652292251587e-01</leafValues></_>
        <_>
          <internalNodes>
            0 -1 600 1.0861656628549099e-03</internalNodes>
          <leafValues>
            6.2158890068531036e-02 -5.4538244009017944e-01</leafValues></_>
        <_>
          <internalNodes>
            0 -1 175 2.9969257302582264e-03</internalNodes>
          <leafValues>
            -1.7159587144851685e-01 1.7661213874816895e-01</leafValues></_></weakClassifiers></_>
    <!-- stage 14 -->
    <_>
      <maxWeakCount>53</maxWeakCount>
      <stageThreshold>-1.4854309558868408e+00</stageThreshold>
      <weakClassifiers>
        <_>
          <internalNodes>
            0 -1 561 3.5334349377080798e-05</internalNodes>
          <leafValues>
            -4.2919868230819702e-01 2.2270742058753967e-01</leafValues></_>
        <_>
          <internalNodes>
            0 -1 512 -7.1311537176370621e-03</internalNodes>
          <leafValues>
            2.5512471795082092e-01 -2.7231544256210327e-01</leafValues></_>
        <_>
          <internalNodes>
            0 -1 561 1.4869845472276211e-03</internalNodes>
          <leafValues>
            1.0446545481681824e-01 -6.5057271718978882e-01</leafValues></_>
        <_>
          <internalNodes>
            0 -1 49 -3.6999983421992511e-05</internalNodes>
          <leafValues>
            2.1111516654491425e-01 -2.6825091242790222e-01</leafValues></_>
        <_>
          <internalNodes>
            0 -1 288 4.5108124613761902e-02</internalNodes>
          <leafValues>
            -8.8142886757850647e-02 4.8472315073013306e-01</leafValues></_>
        <_>
          <internalNodes>
            0 -1 122 4.7603979706764221e-02</internalNodes>
          <leafValues>
            -3.0600780248641968e-01 1.8134926259517670e-01</leafValues></_>
        <_>
          <internalNodes>
            0 -1 345 3.5551780456444249e-05</internalNodes>
          <leafValues>
            -3.1575551629066467e-01 1.5630283951759338e-01</leafValues></_>
        <_>
          <internalNodes>
            0 -1 395 -5.6747994385659695e-03</internalNodes>
          <leafValues>
            3.6025288701057434e-01 -1.2981986999511719e-01</leafValues></_>
        <_>
          <internalNodes>
            0 -1 511 1.1259859893471003e-03</internalNodes>
          <leafValues>
            1.1227047443389893e-01 -4.8446789383888245e-01</leafValues></_>
        <_>
          <internalNodes>
            0 -1 123 -5.5881574749946594e-02</internalNodes>
          <leafValues>
            4.8118746280670166e-01 -9.9037013947963715e-02</leafValues></_>
        <_>
          <internalNodes>
            0 -1 46 -3.6950408684788272e-05</internalNodes>
          <leafValues>
            1.4311055839061737e-01 -3.1208077073097229e-01</leafValues></_>
        <_>
          <internalNodes>
            0 -1 87 3.2541705295443535e-03</internalNodes>
          <leafValues>
            8.8162675499916077e-02 -4.2116862535476685e-01</leafValues></_>
        <_>
          <internalNodes>
            0 -1 538 1.2979544699192047e-02</internalNodes>
          <leafValues>
            -1.1461913585662842e-01 3.3998426795005798e-01</leafValues></_>
        <_>
          <internalNodes>
            0 -1 508 -2.8432353865355253e-03</internalNodes>
          <leafValues>
            2.3818038403987885e-01 -1.5625107288360596e-01</leafValues></_>
        <_>
          <internalNodes>
            0 -1 124 5.0867378013208508e-04</internalNodes>
          <leafValues>
            -2.4380059540271759e-01 1.4599065482616425e-01</leafValues></_>
        <_>
          <internalNodes>
            0 -1 112 -1.0676097124814987e-02</internalNodes>
          <leafValues>
            3.5380029678344727e-01 -1.0694521665573120e-01</leafValues></_>
        <_>
          <internalNodes>
            0 -1 129 8.8301941286772490e-04</internalNodes>
          <leafValues>
            -2.1158368885517120e-01 1.7065058648586273e-01</leafValues></_>
        <_>
          <internalNodes>
            0 -1 208 -2.4408724159002304e-02</internalNodes>
          <leafValues>
            3.7631592154502869e-01 -1.0085401684045792e-01</leafValues></_>
        <_>
          <internalNodes>
            0 -1 391 6.2775559723377228e-02</internalNodes>
          <leafValues>
            -1.6751903295516968e-01 2.3680156469345093e-01</leafValues></_>
        <_>
          <internalNodes>
            0 -1 404 9.8717056214809418e-02</internalNodes>
          <leafValues>
            -1.1758548766374588e-01 3.4341490268707275e-01</leafValues></_>
        <_>
          <internalNodes>
            0 -1 222 6.2311175279319286e-03</internalNodes>
          <leafValues>
            -2.0086826384067535e-01 2.0894199609756470e-01</leafValues></_>
        <_>
          <internalNodes>
            0 -1 353 -6.8527832627296448e-03</internalNodes>
          <leafValues>
            3.4592360258102417e-01 -1.3007813692092896e-01</leafValues></_>
        <_>
          <internalNodes>
            0 -1 323 -8.2080572610720992e-05</internalNodes>
          <leafValues>
            1.1397030204534531e-01 -2.9999530315399170e-01</leafValues></_>
        <_>
          <internalNodes>
            0 -1 272 -6.6284728236496449e-03</internalNodes>
          <leafValues>
            2.6854002475738525e-01 -1.2620559334754944e-01</leafValues></_>
        <_>
          <internalNodes>
            0 -1 268 3.8082022219896317e-03</internalNodes>
          <leafValues>
            -1.8740773200988770e-01 1.8359027802944183e-01</leafValues></_>
        <_>
          <internalNodes>
            0 -1 191 -4.3359339237213135e-01</internalNodes>
          <leafValues>
            2.0465086400508881e-01 -1.9381435215473175e-01</leafValues></_>
        <_>
          <internalNodes>
            0 -1 331 9.9453041912056506e-05</internalNodes>
          <leafValues>
            -1.7941008508205414e-01 2.0008850097656250e-01</leafValues></_>
        <_>
          <internalNodes>
            0 -1 266 3.6794394254684448e-02</internalNodes>
          <leafValues>
            -1.8115025758743286e-01 2.0427367091178894e-01</leafValues></_>
        <_>
          <internalNodes>
            0 -1 414 -8.5792578756809235e-03</internalNodes>
          <leafValues>
            2.7360606193542480e-01 -1.7034816741943359e-01</leafValues></_>
        <_>
          <internalNodes>
            0 -1 119 1.1665547208394855e-04</internalNodes>
          <leafValues>
            -2.2072954475879669e-01 1.5170638263225555e-01</leafValues></_>
        <_>
          <internalNodes>
            0 -1 383 2.6602510362863541e-02</internalNodes>
          <leafValues>
            -1.3133151829242706e-01 2.8886458277702332e-01</leafValues></_>
        <_>
          <internalNodes>
            0 -1 385 -1.3764619827270508e-02</internalNodes>
          <leafValues>
            3.4627380967140198e-01 -1.1016222089529037e-01</leafValues></_>
        <_>
          <internalNodes>
            0 -1 4 9.5759547548368573e-04</internalNodes>
          <leafValues>
            1.0828351974487305e-01 -3.3341044187545776e-01</leafValues></_>
        <_>
          <internalNodes>
            0 -1 140 1.9089721608906984e-03</internalNodes>
          <leafValues>
            7.3108121752738953e-02 -3.6609652638435364e-01</leafValues></_>
        <_>
          <internalNodes>
            0 -1 187 9.0836882591247559e-03</internalNodes>
          <leafValues>
            -1.2146330624818802e-01 2.4157024919986725e-01</leafValues></_>
        <_>
          <internalNodes>
            0 -1 140 -4.8337550833821297e-04</internalNodes>
          <leafValues>
            -2.5478282570838928e-01 1.2120104581117630e-01</leafValues></_>
        <_>
          <internalNodes>
            0 -1 473 8.1245139241218567e-02</internalNodes>
          <leafValues>
            -6.7222028970718384e-02 4.8120704293251038e-01</leafValues></_>
        <_>
          <internalNodes>
            0 -1 526 -1.3103002682328224e-02</internalNodes>
          <leafValues>
            2.9014518857002258e-01 -9.6884913742542267e-02</leafValues></_>
        <_>
          <internalNodes>
            0 -1 286 -2.7933465316891670e-03</internalNodes>
          <leafValues>
            -5.5147933959960938e-01 5.2299052476882935e-02</leafValues></_>
        <_>
          <internalNodes>
            0 -1 243 -2.1882764995098114e-02</internalNodes>
          <leafValues>
            3.1598502397537231e-01 -9.1195948421955109e-02</leafValues></_>
        <_>
          <internalNodes>
            0 -1 285 3.0405963771045208e-03</internalNodes>
          <leafValues>
            3.9976302534341812e-02 -7.2740691900253296e-01</leafValues></_>
        <_>
          <internalNodes>
            0 -1 355 -1.4487726613879204e-02</internalNodes>
          <leafValues>
            2.6740300655364990e-01 -1.0169118642807007e-01</leafValues></_>
        <_>
          <internalNodes>
            0 -1 162 2.8147850185632706e-02</internalNodes>
          <leafValues>
            4.0389072149991989e-02 -7.1905636787414551e-01</leafValues></_>
        <_>
          <internalNodes>
            0 -1 325 -6.6718393936753273e-03</internalNodes>
          <leafValues>
            2.4489608407020569e-01 -1.1496112495660782e-01</leafValues></_>
        <_>
          <internalNodes>
            0 -1 273 4.5508658513426781e-03</internalNodes>
          <leafValues>
            -2.0383282005786896e-01 1.6570006310939789e-01</leafValues></_>
        <_>
          <internalNodes>
            0 -1 317 1.3195778592489660e-04</internalNodes>
          <leafValues>
            9.9613599479198456e-02 -3.0918204784393311e-01</leafValues></_>
        <_>
          <internalNodes>
            0 -1 215 8.7033768068067729e-05</internalNodes>
          <leafValues>
            -2.1677863597869873e-01 1.2987579405307770e-01</leafValues></_>
        <_>
          <internalNodes>
            0 -1 145 4.6291151642799377e-01</internalNodes>
          <leafValues>
            3.2144915312528610e-02 -8.2542407512664795e-01</leafValues></_>
        <_>
          <internalNodes>
            0 -1 432 -1.2738194316625595e-02</internalNodes>
          <leafValues>
            2.5424590706825256e-01 -1.0767209529876709e-01</leafValues></_>
        <_>
          <internalNodes>
            0 -1 195 3.5991720855236053e-02</internalNodes>
          <leafValues>
            -1.7818444967269897e-01 1.6860274970531464e-01</leafValues></_>
        <_>
          <internalNodes>
            0 -1 443 1.8794368952512741e-04</internalNodes>
          <leafValues>
            1.1588371545076370e-01 -2.5028130412101746e-01</leafValues></_>
        <_>
          <internalNodes>
            0 -1 128 -3.5642296075820923e-02</internalNodes>
          <leafValues>
            -7.5885862112045288e-01 3.7236377596855164e-02</leafValues></_>
        <_>
          <internalNodes>
            0 -1 232 1.0055252350866795e-02</internalNodes>
          <leafValues>
            3.3366203308105469e-02 -6.1814284324645996e-01</leafValues></_></weakClassifiers></_>
    <!-- stage 15 -->
    <_>
      <maxWeakCount>52</maxWeakCount>
      <stageThreshold>-1.4127930402755737e+00</stageThreshold>
      <weakClassifiers>
        <_>
          <internalNodes>
            0 -1 581 3.5069657315034419e-05</internalNodes>
          <leafValues>
            -3.9524680376052856e-01 2.0531813800334930e-01</leafValues></_>
        <_>
          <internalNodes>
            0 -1 593 1.9156446680426598e-02</internalNodes>
          <leafValues>
            -1.6066019237041473e-01 3.9950653910636902e-01</leafValues></_>
        <_>
          <internalNodes>
            0 -1 137 -1.7460607341490686e-04</internalNodes>
          <leafValues>
            2.0415666699409485e-01 -2.7248835563659668e-01</leafValues></_>
        <_>
          <internalNodes>
            0 -1 400 5.0001099705696106e-02</internalNodes>
          <leafValues>
            -2.2525990009307861e-01 2.3946356773376465e-01</leafValues></_>
        <_>
          <internalNodes>
            0 -1 546 3.2898359000682831e-02</internalNodes>
          <leafValues>
            -1.3223317265510559e-01 3.8913843035697937e-01</leafValues></_>
        <_>
          <internalNodes>
            0 -1 457 3.0788755044341087e-02</internalNodes>
          <leafValues>
            -2.3592576384544373e-01 2.3748804628849030e-01</leafValues></_>
        <_>
          <internalNodes>
            0 -1 306 4.0852636098861694e-02</internalNodes>
          <leafValues>
            -1.9677634537220001e-01 2.5166669487953186e-01</leafValues></_>
        <_>
          <internalNodes>
            0 -1 397 1.1091042688349262e-04</internalNodes>
          <leafValues>
            1.6825668513774872e-01 -3.0191132426261902e-01</leafValues></_>
        <_>
          <internalNodes>
            0 -1 72 6.6959457471966743e-03</internalNodes>
          <leafValues>
            -2.1360714733600616e-01 2.3151329159736633e-01</leafValues></_>
        <_>
          <internalNodes>
            0 -1 581 1.2161618797108531e-03</internalNodes>
          <leafValues>
            1.2417599558830261e-01 -5.5960267782211304e-01</leafValues></_>
        <_>
          <internalNodes>
            0 -1 6 1.2996598379686475e-03</internalNodes>
          <leafValues>
            1.1459992825984955e-01 -3.7915480136871338e-01</leafValues></_>
        <_>
          <internalNodes>
            0 -1 183 2.5285306572914124e-01</internalNodes>
          <leafValues>
            4.4793833047151566e-02 -7.0422232151031494e-01</leafValues></_>
        <_>
          <internalNodes>
            0 -1 136 -3.5069657315034419e-05</internalNodes>
          <leafValues>
            1.7773737013339996e-01 -2.4028283357620239e-01</leafValues></_>
        <_>
          <internalNodes>
            0 -1 576 -2.8860362246632576e-02</internalNodes>
          <leafValues>
            4.0800315141677856e-01 -1.2052428722381592e-01</leafValues></_>
        <_>
          <internalNodes>
            0 -1 6 -7.9192279372364283e-04</internalNodes>
          <leafValues>
            -3.7054523825645447e-01 1.2678858637809753e-01</leafValues></_>
        <_>
          <internalNodes>
            0 -1 5 3.2501867972314358e-03</internalNodes>
          <leafValues>
